<?xml version="1.0"?>
<opencv_storage>
<opencv_ml_svm>
  <format>3</format>
  <svmType>C_SVC</svmType>
  <kernel>
    <type>LINEAR</type></kernel>
  <C>1.0000000000000000e-02</C>
  <term_criteria><epsilon>1.0000000000000000e-02</epsilon>
    <iterations>1000</iterations></term_criteria>
  <var_count>1760</var_count>
  <class_count>3</class_count>
  <class_labels type_id="opencv-matrix">
    <rows>3</rows>
    <cols>1</cols>
    <dt>i</dt>
    <data>
      2 3 7</data></class_labels>
  <sv_total>3</sv_total>
  <support_vectors>
    <_>
      -7.75300002e-09 3.97686932e-08 4.96769594e-08 3.46027811e-08
      8.45381862e-08 2.66212545e-08 6.03222503e-08 -3.89944255e-09
      -8.79902800e-08 4.77103477e-08 5.22033545e-08 -1.35595542e-07
      2.13082458e-07 2.68911253e-06 3.36993799e-06 3.31887190e-06
      3.50074174e-06 -7.71794566e-06 -7.88019224e-06 -4.70656505e-06
      -4.22564835e-06 -7.46369369e-06 -7.51318294e-06 1.61483956e-06
      -1.03860532e-06 -1.18085893e-06 -2.42160922e-06 -2.12896020e-06
      -4.88556395e-08 8.27508939e-06 8.56707993e-06 8.63615787e-06
      6.18101967e-06 4.74350418e-06 4.50648031e-06 6.27844838e-06
      6.32433648e-06 6.11324822e-06 6.27932059e-06 6.23611550e-06 0. 0.
      1.16859582e-07 3.06480956e-07 3.67922333e-08 1.57974881e-07
      -2.17270326e-08 8.27671371e-08 1.22800884e-07 7.31455501e-08
      5.50324515e-08 2.97775973e-08 2.71756431e-08 2.75401976e-06
      2.30731757e-06 6.44506963e-06 -7.33999559e-06 -4.77961794e-06
      -4.54776819e-06 -4.48865558e-06 -4.60358433e-06 -3.04885180e-06
      -3.56167243e-06 -1.24365388e-05 -1.22990659e-05 -1.24222342e-05
      -2.19723242e-05 -1.21747871e-05 -1.23650298e-05 -4.65649873e-06
      -7.19944774e-06 -7.17982766e-06 -4.80651352e-06 3.20770346e-06
      -2.47739717e-06 1.22183483e-05 8.61945773e-06 4.49574782e-06
      5.14632484e-06 6.16678926e-06 5.95111078e-06 6.31177909e-06
      6.22404377e-06 6.41815041e-06 6.08551829e-07 0. 2.33719163e-07 0.
      8.06035274e-08 7.79881404e-08 1.17994418e-07 9.56598356e-09
      1.89587738e-07 -4.18456736e-08 1.04590015e-07 -1.10387504e-08
      5.34031369e-06 6.39166001e-06 1.21546364e-05 -2.18658056e-06
      -2.19023764e-06 -1.47955097e-05 -2.15093860e-05 -1.65858455e-05
      -2.65472336e-05 -2.20435177e-05 -2.17696761e-05 -2.74938884e-05
      -2.72115740e-05 -2.71397275e-05 -2.45619067e-05 -2.86488794e-05
      -2.36968681e-05 -2.38168359e-05 -1.98340203e-05 -1.63140612e-05
      -1.62482593e-05 -8.84530527e-06 2.47491494e-06 4.20208789e-06
      -2.70324381e-06 -2.43632485e-06 4.72952843e-06 6.10405777e-06
      6.28767793e-06 6.32512865e-06 6.26311703e-06 6.25607981e-06
      6.18475224e-06 6.57059672e-07 0. 2.42539304e-08 -3.28711955e-08
      2.81223265e-07 1.13356549e-07 2.11555928e-08 1.05654713e-07
      1.38699416e-08 3.15374655e-06 4.21929008e-06 7.86982764e-06
      3.82895951e-06 -1.74630441e-05 -1.08414542e-05 -3.29259055e-05
      -3.48212343e-05 -2.31611666e-05 -2.32014827e-05 -2.31947324e-05
      -2.36315045e-05 -2.34045710e-05 -2.34063809e-05 6.25843541e-06
      1.05706231e-05 -1.88903014e-05 -7.55937754e-06 -1.17404497e-05
      -1.34285856e-05 -1.93174674e-05 -2.56479598e-05 -1.31228671e-05
      -1.60720610e-05 -1.62469496e-05 -7.15106171e-06 3.39131293e-05
      -5.87071263e-08 -2.58655587e-06 -4.57307669e-06 -7.91190450e-06
      6.25835628e-06 6.12990152e-06 6.52631161e-06 6.18475224e-06
      4.85078608e-08 0. 2.33719163e-07 5.37416689e-08 1.26167246e-08
      1.50097745e-09 2.97272784e-08 1.88316633e-08 3.19607943e-06
      3.36705193e-06 5.03207320e-06 1.60504078e-05 9.21462834e-06
      -9.51910260e-06 -4.37284416e-06 -1.88175964e-05 -1.88317408e-05
      5.92268179e-06 6.40099188e-06 6.60930436e-06 6.68358098e-06
      4.43231647e-06 4.62886283e-06 4.50367133e-06 1.80045538e-06
      -4.12055897e-06 -6.74758758e-06 5.14739531e-06 1.26468649e-05
      -1.65951515e-05 -1.68082133e-05 -1.40570583e-05 -6.91596642e-06
      -2.00626673e-05 1.34102074e-05 2.07757366e-05 2.39254114e-05
      -1.43393515e-06 -5.68584710e-06 -3.50955088e-06 -4.79623759e-06
      -7.77589139e-06 6.36495361e-06 6.48682317e-06 2.42539304e-08
      4.67438326e-07 2.42539304e-08 1.40038040e-07 4.95352523e-08
      1.00866323e-07 5.47473853e-08 -1.06428297e-08 5.72988256e-06
      1.22023175e-05 2.38316097e-05 2.73602727e-05 2.24824926e-05
      2.44417279e-05 1.29348846e-05 -2.85261740e-06 -5.36972493e-06
      -7.57980251e-06 -8.39209133e-06 -8.59952434e-06 -6.02859654e-06
      -6.21026311e-06 -8.95015910e-06 -8.54893915e-06 -8.71946304e-06
      -6.07558241e-06 -6.05341120e-06 -6.18927470e-06 -6.03864146e-06
      -6.10144843e-06 -1.21778930e-06 -5.76212915e-06 6.86518490e-07
      1.51418390e-05 2.16075678e-05 2.53511735e-05 1.86789221e-05
      1.55279286e-05 2.78678799e-05 2.79390079e-05 1.88611684e-05
      1.75022742e-05 2.18125551e-05 2.95897280e-05 2.33719163e-07
      4.85078608e-08 0. -2.52415200e-09 3.05561336e-08 6.33379429e-08
      9.50909396e-08 -2.47844110e-08 9.78811659e-06 1.17464324e-05
      2.45603296e-05 2.72133566e-05 3.56791716e-05 1.42502431e-05
      -3.29661862e-06 -3.18142133e-06 -8.97901191e-06 -9.66097286e-06
      4.31835997e-06 4.23635584e-06 1.47408548e-06 -1.46513059e-06
      -1.55323926e-06 -1.32391858e-06 -1.40637383e-06 1.25607460e-06
      1.43860950e-06 1.40341490e-06 5.23606786e-06 -6.03439139e-06
      -6.40458165e-06 -6.21957133e-06 -4.39379664e-06 7.14000498e-06
      1.52753746e-05 2.02165484e-05 3.11502408e-05 2.25811109e-05
      1.62128363e-05 2.38518387e-05 2.80948952e-05 1.86358575e-05
      2.85853966e-05 3.59596925e-05 2.98477007e-05 0. 4.85078608e-08
      1.21391555e-08 2.45181923e-07 -1.67625540e-08 8.44367354e-10
      5.31486137e-07 8.21222147e-06 8.59937245e-06 1.81082578e-05
      2.42180031e-05 4.25995313e-05 1.94666864e-05 7.05570358e-08
      4.16521040e-08 -7.23597896e-06 -1.07153910e-05 -1.12757916e-05
      -1.11832769e-05 -1.10746132e-05 -1.13823062e-05 -1.10938481e-05
      -4.51247615e-06 -4.76921787e-06 -1.43138993e-06 -1.70621138e-06
      -1.47245203e-06 -1.85782801e-06 4.34817093e-06 5.36498146e-06
      7.88565558e-06 1.77382589e-08 1.63693684e-07 7.03883279e-06
      1.54128265e-05 1.78407026e-05 3.17472695e-05 2.15667915e-05
      2.00189515e-05 1.40310103e-05 2.28303834e-05 1.45837621e-05
      3.58670841e-05 2.97991937e-05 2.96823328e-05 2.33719163e-07
      -9.55579704e-09 2.70167586e-08 2.10436237e-08 8.89488518e-08
      4.28783005e-06 9.69414032e-06 1.04245910e-05 1.25464194e-05
      1.34961047e-05 3.88930457e-05 1.14704098e-05 5.49764582e-06
      9.38404264e-06 4.12474674e-06 -1.53422059e-06 -1.30242006e-06
      -1.29305920e-06 -1.50056746e-06 3.25437099e-06 -2.96799021e-06
      -2.99322346e-06 -2.94249003e-06 -2.88882825e-06 5.96595964e-06
      5.79702555e-06 1.50593064e-06 -2.02841534e-06 4.38495408e-06
      5.21498941e-06 -1.57910945e-05 -1.58854691e-05 -2.96757207e-05
      -1.77874063e-05 -1.19103079e-05 -3.00932311e-06 -7.28305167e-06
      -6.13413340e-06 -1.48249114e-06 2.48720007e-05 2.16969365e-05
      1.72319924e-05 -1.37327952e-05 2.86548190e-08 -5.02054682e-08
      6.40844675e-08 9.35880635e-08 -1.58292224e-08 9.94413938e-08
      -7.95504150e-07 -3.26028430e-06 4.69585120e-06 -9.07313620e-07
      8.36884283e-06 1.34092970e-05 1.85624667e-05 1.53758065e-05
      -2.76544370e-06 -8.23701976e-06 -5.43936721e-06 -2.18771474e-05
      -1.74326306e-05 -8.47784486e-06 -5.89799311e-06 -2.91256856e-06
      -2.43723912e-06 9.26675602e-06 -1.42875879e-05 -2.06400341e-06
      -1.41476503e-05 1.70255092e-07 -2.38048233e-05 -2.39896272e-05
      -2.55067589e-05 -1.57751201e-05 -1.56696406e-05 -2.99206094e-05
      -2.96938761e-05 -1.06059924e-05 -3.07775940e-06 -8.42279223e-06
      -8.06279968e-06 -1.55284897e-06 -3.95138022e-06 -1.22810434e-05
      -2.10526887e-05 -1.38093319e-05 -4.91569416e-08 -5.97714518e-08
      -8.71441941e-08 1.01257498e-07 4.05849754e-08 -6.32568486e-08
      5.32007220e-07 -1.02332865e-06 -1.46859179e-06 -1.38030794e-06
      -7.14291446e-06 -1.38473097e-05 -7.34485684e-06 2.28315548e-05
      1.25552806e-05 8.62637353e-06 3.63163372e-06 2.16727622e-05
      2.15654127e-05 1.24796197e-05 1.04444171e-05 1.01988708e-05
      1.94043987e-05 -1.00885591e-05 -1.51880322e-05 -3.82388571e-05
      -3.57095196e-05 -4.65312405e-05 -3.80897764e-05 -3.54050535e-05
      -2.81245702e-05 -1.98838461e-05 -1.74620945e-05 -2.97603656e-05
      -2.98262567e-05 -9.63880757e-06 3.11950970e-07 -2.07444486e-06
      -1.03974853e-05 -2.10026496e-06 -3.96103587e-06 -7.39723464e-06
      -2.53779672e-05 -2.13016592e-05 -3.82837495e-09 5.64454069e-07
      7.45559277e-08 4.49106139e-08 2.00177972e-08 1.50832076e-08
      2.16870575e-08 -1.31797322e-06 3.15589801e-07 -2.37762356e-06
      -2.35527295e-06 -2.62520848e-06 -4.77009917e-06 -1.28495415e-07
      2.80089298e-05 2.54480910e-05 2.29162852e-05 2.29630168e-05
      2.30540973e-05 2.85856968e-05 1.69818231e-05 1.70326712e-05
      2.96572198e-05 -1.46583727e-06 -9.80804725e-06 -2.96836570e-05
      -2.79168962e-05 -3.65730448e-05 -3.41671075e-05 -2.91510278e-05
      -2.19139438e-05 -2.71255794e-05 -1.72941636e-05 -1.61330317e-05
      -2.95160989e-05 -9.77795571e-06 7.58705653e-07 1.49943924e-06
      -1.01792148e-05 -2.13307453e-06 3.91913602e-07 -7.65713412e-06
      -2.83408590e-05 -2.10858216e-05 1.73456300e-07 -1.46692784e-07
      1.02339371e-07 -8.71182024e-08 1.00827187e-07 6.36697663e-08
      1.42467256e-08 7.21776843e-08 6.97133871e-08 2.68455036e-08
      -3.04954852e-08 -7.91446269e-08 1.11672129e-08 -3.67391415e-08
      2.80074200e-05 2.55617360e-05 2.67891828e-05 2.68872172e-05
      2.67454325e-05 2.95684495e-05 2.97437109e-05 1.80155876e-05
      2.97261977e-05 -2.68426788e-07 -1.98087873e-05 -2.98149353e-05
      -3.50190385e-05 -3.67445064e-05 -2.39979036e-05 -2.37102086e-05
      -2.16883564e-05 -2.74041649e-05 -1.81824944e-05 -1.55239613e-05
      -2.97498082e-05 -1.13473425e-06 -1.11162353e-06 -4.72962392e-06
      -4.25642747e-06 -1.84619546e-06 7.02339094e-07 -8.47918000e-06
      -1.40409793e-05 -1.88664071e-05 -1.39297626e-05 1.06083228e-07
      1.16425603e-07 -4.13083434e-08 9.64121227e-09 -7.25602467e-09
      -1.12391563e-09 4.92350516e-08 5.23782191e-08 5.97040000e-08
      6.24379837e-08 4.90354513e-09 -4.34245919e-08 -1.12851296e-07
      1.52330166e-08 2.66358256e-05 2.66400748e-05 2.70303899e-05
      2.96635571e-05 2.95973077e-05 1.62093784e-05 1.79168746e-05
      1.78131359e-05 1.64901357e-05 1.21829517e-05 9.42441091e-07
      -3.97082913e-05 -2.65192975e-05 -2.31575832e-05 -2.07583762e-05
      -2.31291051e-05 -2.73922142e-05 -1.57255126e-05 -2.98556879e-05
      -2.95516566e-05 -3.80897905e-06 4.25057152e-07 -4.30468026e-06
      -4.69696170e-06 -2.11985935e-06 6.02808859e-06 -1.16187693e-05
      -1.39426584e-05 -1.36814388e-05 1.41113517e-07 -5.35762332e-08
      1.90930631e-08 2.23446747e-07 1.11822729e-08 2.40766070e-07
      -3.28552190e-08 -2.35859350e-08 1.80512600e-07 -2.42962539e-08
      8.62676952e-09 -1.00102092e-07 -2.10574640e-07 -1.05066235e-07
      1.24054026e-07 2.96170565e-05 2.62017311e-05 2.98315663e-05
      2.78774605e-05 2.81629673e-05 1.64950525e-05 1.60906584e-05
      1.64059893e-05 7.73629836e-06 2.26765542e-06 -6.14741657e-06
      -8.54370592e-06 9.17588841e-06 -2.71964127e-05 -2.06487166e-05
      -2.25938147e-05 -2.89633444e-05 -2.96743910e-05 -2.97395873e-05
      -2.44680323e-05 -1.93319283e-06 2.17647903e-06 -7.82939787e-06
      -2.27951023e-06 6.75271713e-06 6.52767653e-07 -8.63860168e-06
      -1.09451867e-05 -3.92002767e-06 -9.13532361e-08 -5.13285814e-09
      1.85067357e-08 4.21746833e-08 4.53234072e-08 -1.56902864e-08
      6.92075162e-08 -2.40451392e-09 1.21725435e-07 2.94107796e-08
      -6.45432294e-08 1.82926499e-07 -6.95997713e-08 -8.75464465e-08
      2.78952228e-07 2.96237904e-05 2.96539874e-05 2.06626264e-05
      1.41364262e-05 1.40735028e-05 1.37182551e-05 1.39253252e-05
      8.51127027e-07 7.41661779e-07 -9.22426625e-06 3.93931305e-06
      4.51046844e-07 5.45493731e-06 1.08303220e-05 -1.68922161e-05
      -3.01739528e-05 -3.87408327e-05 -2.96553608e-05 -2.97592796e-05
      -1.54756435e-05 4.96701830e-07 2.21200116e-06 -1.35631501e-06
      6.85272789e-06 4.82981932e-07 -7.22369987e-06 1.55243902e-06
      9.98151245e-06 -3.62073183e-06 0. -2.20167877e-07 -1.58516009e-08
      -1.58516009e-08 0. 0. -4.75548028e-08 0. 0. 0. 1.26246009e-08
      7.27099669e-09 -6.95810058e-08 6.56955379e-09 5.77592836e-08
      -9.50061894e-06 3.85891053e-06 7.97155337e-07 -1.96463179e-06
      6.88521868e-06 2.86784575e-06 2.86590398e-06 -1.08934964e-05
      -2.26197189e-05 -2.67644941e-06 -2.18322498e-06 -1.05860736e-05
      -1.02024205e-05 -1.66571281e-05 -1.40897482e-05 -3.98836346e-05
      -2.95748850e-05 -2.95747377e-05 -2.39753481e-05 -1.25637307e-05
      6.16616489e-06 7.70482757e-07 1.13240649e-05 -2.26476527e-06
      -4.95224072e-07 -8.42635200e-06 6.92381263e-06 1.01581218e-05
      9.05605521e-06 -2.87054647e-08 5.60989335e-08 0. 0.
      -6.34064037e-08 0. 0. -1.58516009e-08 0. -1.58516009e-08
      -8.45312016e-08 -3.83910219e-06 -4.08603091e-06 -8.32956266e-06
      -1.30486378e-05 -1.39303047e-05 -3.71041097e-05 -4.01472753e-05
      -4.75045381e-05 -2.27483470e-05 -2.29753114e-05 -2.34385952e-05
      -1.77994589e-05 -2.50768153e-05 -1.21970525e-05 -1.32711311e-05
      -2.12675641e-05 -2.10094186e-05 -1.67000453e-05 -9.87040767e-06
      -3.85511703e-05 -2.98152991e-05 -2.41986891e-05 -1.28515621e-05
      -5.58507554e-06 9.02923603e-06 2.92662344e-06 -2.38959637e-06
      -2.46197737e-06 8.04081355e-06 1.67252201e-05 1.85779518e-05
      1.43052284e-05 8.89210241e-06 1.01590750e-07 -4.87894916e-08 0. 0.
      0. -3.17032018e-08 -3.17032018e-08 0. 0. 0. -4.04135608e-06
      -4.27066470e-06 -4.08472442e-06 -8.30786121e-06 -1.64503799e-05
      -1.94435743e-05 -3.86287429e-05 -5.27334996e-05 -5.54134822e-05
      -5.90326381e-05 -5.53422942e-05 -2.57057836e-05 -2.28113458e-05
      -2.95458194e-05 -2.56544408e-05 -2.13246512e-05 -1.83562115e-05
      -1.83702741e-05 -1.30346743e-05 -9.16952104e-06 5.57041722e-06
      -2.02926767e-05 -5.66666995e-06 -3.21090261e-06 -9.55797350e-06
      1.07364285e-05 -2.49627107e-07 -5.42919770e-06 -5.58373040e-06
      1.83499124e-05 2.10151939e-05 1.81891792e-05 8.92073422e-06
      -7.67345725e-08 -1.16069373e-07 1.61902971e-08 0. -3.17032018e-08
      0. 0. -1.58516009e-08 0. 0. -4.04215825e-06 -3.88770877e-06
      -4.13358248e-06 -8.90503816e-06 -1.90660376e-05 -2.60060115e-05
      -2.83606896e-05 -5.07207988e-05 -6.34721073e-05 -6.01607353e-05
      -6.76902273e-05 -5.53757782e-05 -5.17321896e-05 -6.35046454e-05
      -2.98009654e-05 -2.53294147e-05 -2.24907344e-05 -2.01110233e-05
      -1.31494353e-05 -4.27413443e-06 5.85819571e-08 4.08538654e-06
      2.08956535e-05 2.52848567e-05 2.46002583e-05 3.27524867e-05
      3.47055102e-05 2.97876722e-05 -3.30901059e-07 -2.75953812e-06
      2.02666579e-05 1.80111383e-05 1.46010143e-05 5.47647190e-08
      1.02924965e-07 3.55139420e-08 -3.25263265e-08 0. -3.17032018e-08
      0. 0. -1.58516009e-08 0. 0. -4.04215825e-06 -4.12790678e-06
      -8.09111043e-06 -1.05084982e-05 -2.00912182e-05 -2.57954471e-05
      -2.82447836e-05 -3.26377958e-05 -6.16544639e-05 -5.34876126e-05
      -4.99098860e-05 -5.18617817e-05 -4.75689740e-05 -5.93314180e-05
      -5.20453468e-05 -5.22286246e-05 -4.81326933e-05 -2.98253617e-05
      -2.96505114e-05 5.96453589e-08 -7.03732780e-07 -8.37170688e-08
      -2.55288433e-06 2.85708097e-06 4.97161818e-06 2.86046525e-05
      2.64680893e-05 2.64214632e-05 2.39556757e-05 2.86610230e-05
      4.43363115e-06 -8.78092942e-06 3.24721512e-08 4.32183000e-09
      -5.06024556e-08 6.29074108e-08 -4.87672693e-08 0. 0. 0.
      -3.17032018e-08 -3.17032018e-08 0. 0. 0. -6.56769180e-06
      -1.06709049e-05 -1.04426172e-05 -1.61816843e-05 -1.95324010e-05
      -1.58890707e-05 -2.19065842e-05 -3.49243055e-05 -4.57630449e-05
      -4.77882350e-05 -4.08340420e-05 -4.09435052e-05 -5.18388260e-05
      -4.55543741e-05 -3.46398665e-05 -2.96898052e-05 -2.94805941e-05
      -2.97068709e-05 -2.96490180e-05 -6.57532473e-06 -7.31094178e-06
      -1.37757816e-05 -2.07050343e-05 1.01995499e-06 -2.73681349e-06
      1.75623391e-05 2.02289393e-05 1.81923606e-05 2.00709728e-05
      8.43342968e-06 -1.37601928e-05 -1.41091787e-05 -1.62631633e-08
      5.60989335e-08 -3.25263265e-08 5.60989335e-08 0. 0.
      -6.34064037e-08 0. 0. -1.58516009e-08 0. -1.58516009e-08
      -2.82312953e-06 -3.96069208e-06 -4.31345416e-06 -2.83481768e-06
      1.37718291e-06 3.93783193e-06 -7.53268068e-06 -2.24118703e-05
      -1.78069204e-05 -1.81128089e-05 -1.69317518e-05 -1.66070022e-05
      -2.08082952e-06 -8.31604302e-06 -8.43362341e-06 -1.54709214e-05
      -1.53199198e-05 -2.22323088e-05 -2.29653360e-05 2.74157287e-06
      -2.20551137e-05 -2.49468449e-05 -2.99256280e-05 -2.17191664e-05
      -1.33460217e-05 -4.19835123e-06 5.86706710e-06 -2.21560117e-06
      -4.11288283e-06 5.23282461e-06 8.60143155e-06 -2.12799241e-05
      -2.12473788e-05 -2.12747727e-05 -1.39656449e-05 -1.40117882e-05
      -1.58516009e-08 -1.58516009e-08 0. 0. -4.75548028e-08 0. 0. 0.
      7.63013577e-06 1.16441061e-05 8.24959170e-06 1.49308171e-05
      1.57642535e-05 1.85942226e-05 1.90118753e-05 1.01116539e-05
      1.56118458e-05 1.40986131e-05 -1.26846737e-06 9.27956353e-06
      1.79473300e-05 9.13580698e-06 -2.63272113e-06 -1.14505838e-05
      -1.57782779e-05 -2.56304120e-05 -3.05577996e-05 -4.07755833e-05
      -1.69907871e-05 -1.69618634e-05 -1.96956680e-05 -7.63529533e-06
      -2.06372806e-05 -1.76791527e-05 -1.26032182e-05 -1.64279245e-05
      -1.46433649e-05 -5.38382574e-06 4.00849149e-06 -2.53500421e-05
      -2.54299994e-05 -2.13034782e-05 -1.39629983e-05 -1.38770420e-05
      3.34022836e-08 1.02277312e-07 1.14126621e-07 3.06413597e-08
      1.08708427e-07 8.97860417e-08 9.75588748e-08 7.68083191e-06
      1.44594551e-05 1.43933767e-05 2.23402494e-05 2.08596903e-05
      2.86686609e-05 3.21121152e-05 3.21361804e-05 3.61769416e-05
      3.75369709e-05 5.17723674e-05 4.18588679e-05 4.05360879e-05
      4.42302990e-05 2.89421259e-05 2.10652743e-05 -1.30616752e-06
      -2.05108881e-05 -2.33061473e-05 -3.11488766e-05 -6.77387288e-06
      -9.70397832e-06 -1.23227883e-05 -2.35432944e-05 -2.38694756e-05
      -2.14885531e-05 -2.19943213e-05 -2.21819446e-05 -7.79625861e-06
      -1.93660489e-05 -6.39429391e-06 -1.28848103e-06 -2.54222923e-05
      -2.54885654e-05 -2.53931721e-05 -2.12912219e-05 -1.40994607e-05
      1.84699601e-07 5.20657188e-08 1.06750925e-07 1.48850432e-07
      8.69390107e-08 6.17342994e-06 1.44469695e-05 1.84371238e-05
      2.22793133e-05 2.24422838e-05 2.52020545e-05 3.24637513e-05
      3.35828518e-05 3.34450706e-05 3.76228199e-05 5.08937010e-05
      5.61875095e-05 5.59833061e-05 5.58948232e-05 4.84320844e-05
      3.80964666e-05 3.00741667e-05 2.41941034e-05 1.73124918e-05
      -4.94335745e-06 -2.25094500e-05 -2.23634670e-05 -5.44212480e-06
      -1.45899703e-05 -2.16706430e-05 -2.57961819e-05 -3.46226698e-05
      -4.21808472e-05 -2.20220172e-05 -2.20449474e-05 -1.03910052e-05
      -2.03374802e-05 -1.31975294e-05 -3.34375618e-05 -3.09570132e-05
      -3.09543830e-05 -2.54973347e-05 -2.54204188e-05 -2.13577587e-05
      1.45136184e-07 6.62414834e-08 2.18933550e-07 1.12194940e-07
      6.30109025e-06 1.29210885e-05 1.84120199e-05 2.21855844e-05
      2.23545212e-05 2.49192453e-05 3.23569584e-05 3.35552577e-05
      3.57012832e-05 4.19962744e-05 5.08502926e-05 5.60357475e-05
      5.59877335e-05 5.50216610e-05 3.82087346e-05 3.62047722e-05
      3.36395533e-05 2.81180128e-05 2.79382475e-05 1.53598012e-05
      2.45532760e-06 -1.69565847e-05 -2.77103227e-05 -2.90217267e-05
      -1.33740141e-05 -3.07117989e-05 -3.06473194e-05 -3.48098692e-05
      -3.48944668e-05 -2.20339753e-05 -2.20598195e-05 -1.03331122e-05
      -6.43393514e-06 -4.85973724e-05 -3.76775497e-05 -3.74560805e-05
      -3.09988209e-05 -2.54343213e-05 -2.53818471e-05 -2.13227831e-05
      3.38717676e-08 6.27546015e-08 2.08163389e-08 1.45174918e-05
      1.84453529e-05 1.83024531e-05 1.91765430e-05 2.23765455e-05
      2.97727474e-05 3.33739117e-05 3.59979604e-05 3.58483521e-05
      4.17217780e-05 5.58825559e-05 5.60165463e-05 5.61922934e-05
      4.39427458e-05 3.69097688e-05 3.67728462e-05 3.36476805e-05
      3.08524541e-05 2.51541787e-05 2.26878710e-05 1.47772025e-05
      -7.06347066e-07 -1.89923576e-05 -3.55616721e-05 -4.31135886e-05
      -2.28011613e-05 -3.09323550e-05 -3.05106623e-05 -3.08405033e-05
      -3.11349759e-05 -2.20535585e-05 -2.18519526e-05 -1.03164230e-05
      -2.00934155e-05 -4.99133530e-05 -3.76243661e-05 -3.76009775e-05
      -3.51752969e-05 -3.10322066e-05 -2.55347040e-05 -2.53740200e-05
      9.65645768e-08 2.38733605e-07 1.43414209e-05 1.45506583e-05
      1.92249790e-05 2.23552506e-05 2.51237943e-05 3.21445768e-05
      3.58476500e-05 3.44119653e-05 2.57478168e-05 3.68078145e-05
      4.57526367e-05 5.46255542e-05 4.38208153e-05 3.72498653e-05
      3.68068286e-05 3.24387474e-05 2.64268438e-05 2.67372143e-05
      2.50911289e-05 2.24374089e-05 2.22634990e-05 6.05164450e-06
      -9.42184488e-06 -3.57942226e-05 -3.95363568e-05 -4.23298661e-05
      -4.75700290e-05 -2.61296809e-05 -3.09936913e-05 -3.03799570e-05
      -3.07351947e-05 -2.69484663e-05 -1.33294416e-05 -1.06042244e-05
      -2.02661158e-05 -4.99914058e-05 -4.32181805e-05 -3.76009884e-05
      -3.09529205e-05 -3.09543830e-05 -2.54373626e-05 -2.54079750e-05
      1.15802045e-07 1.28537777e-05 1.53837027e-05 1.91647832e-05
      1.92632997e-05 2.52117225e-05 2.37287331e-05 3.13687560e-05
      2.70195251e-05 2.02298816e-05 2.98680789e-05 3.51704766e-05
      4.43425524e-05 4.41419870e-05 3.56240816e-05 3.55244374e-05
      2.95826376e-05 2.97464121e-05 2.56479198e-05 1.97417176e-05
      1.73318986e-05 1.14372369e-05 4.32865090e-06 -5.22839537e-06
      -3.70959460e-05 -3.57791032e-05 -3.96110991e-05 -4.69029001e-05
      -4.74390908e-05 -2.61956848e-05 -2.61786608e-05 -3.11040494e-05
      -3.08598319e-05 -2.82646324e-05 -1.31777388e-05 -1.03601024e-05
      -4.99941307e-05 -5.01162322e-05 -4.30355358e-05 -3.32583586e-05
      -3.09742063e-05 -3.10126670e-05 -2.54058014e-05 -2.54017941e-05
      6.20674382e-06 1.83287448e-05 1.93065007e-05 1.90875417e-05
      2.24013966e-05 2.52064419e-05 2.86270915e-05 3.44713189e-05
      2.58062100e-05 2.02922474e-05 2.99070580e-05 3.00896882e-05
      3.88936460e-05 3.72150862e-05 2.19510457e-05 1.20962186e-05
      2.08855108e-05 1.97382124e-05 1.52762714e-05 -5.37532605e-06
      -5.52135725e-06 4.86728550e-06 3.08175345e-06 -3.41326049e-05
      -3.39509570e-05 -3.38449499e-05 -3.80175152e-05 -4.57505848e-05
      -4.49028557e-05 -5.13349187e-05 -2.15105701e-05 -2.60453889e-05
      -2.61902114e-05 -1.61530916e-05 -7.34977539e-06 -1.27931207e-06
      -4.66451529e-05 -4.69703882e-05 -3.43596912e-05 -3.02133158e-05
      -2.78611969e-05 -2.54343213e-05 -2.54227780e-05 -2.54495044e-05
      6.17898331e-06 1.87904006e-05 1.92231582e-05 2.24321684e-05
      2.51702804e-05 2.77210274e-05 3.02503777e-05 3.59748628e-05
      2.02702377e-05 2.16951812e-05 2.74113245e-05 3.60308877e-05
      3.60640115e-05 2.40860900e-05 1.72874297e-05 1.44921432e-05
      1.09212424e-05 6.95455128e-06 4.53164512e-06 8.43497310e-06
      1.83349198e-06 -2.89024911e-06 -2.78370226e-06 -9.59982481e-06
      -2.35415464e-05 -1.47265000e-05 -2.02146839e-05 -3.58527177e-05
      -2.68669446e-05 -6.18277454e-06 -1.02185359e-05 -1.74420366e-05
      -1.76801896e-05 -4.81336883e-06 -9.34260186e-07 2.80576774e-06
      -4.03142221e-05 -4.31526387e-05 -2.98487848e-05 -2.75385100e-05
      -2.76264509e-05 -2.20791444e-05 -2.54153001e-05 -2.54218776e-05
      2.69020688e-06 1.45615322e-05 1.52036109e-05 1.12375719e-05
      1.40090051e-05 1.55885045e-05 2.34183062e-05 2.61541991e-05
      1.17344844e-05 1.85104982e-05 1.55445086e-05 2.43462291e-05
      1.70628409e-05 1.69801169e-05 2.09540704e-05 2.02328156e-05
      1.13399137e-05 1.19636998e-05 5.32889590e-06 2.35592461e-06
      2.80816425e-06 2.46588797e-06 2.71209456e-06 2.57993597e-05
      2.13046915e-05 1.86249545e-05 1.88019239e-05 1.88981594e-05
      6.56553493e-06 7.09651613e-06 7.08983225e-06 6.90637262e-06
      1.69894683e-05 2.14933152e-05 1.90110177e-06 -1.66321497e-05
      -1.39945805e-05 -8.18863464e-06 -1.16610545e-05 -1.15101111e-05
      -5.89980709e-06 -7.31855789e-06 -1.03919547e-05 -1.61779644e-05
      6.49537833e-06 1.51653940e-05 1.11811423e-05 1.10916671e-05
      7.41542090e-06 3.95545285e-05 4.19150856e-05 4.67281061e-05
      3.24064022e-05 3.20955078e-05 3.53997420e-05 3.55479860e-05
      3.58594116e-05 1.25084898e-05 8.66323262e-06 1.02027434e-05
      1.02413396e-05 7.49623405e-06 7.69701364e-06 1.83937009e-05
      1.91904874e-05 1.87845690e-05 2.63981237e-05 2.59232056e-05
      1.88705435e-05 2.49256664e-05 1.77800976e-05 7.28213263e-06
      7.10853010e-06 6.96203915e-06 6.48177547e-06 1.69675386e-05
      1.71453903e-05 -6.71102589e-06 -1.10060901e-05 -1.12889693e-05
      -8.69671658e-06 -7.75553985e-07 -3.79404105e-06 -4.43767476e-07
      -7.72712212e-07 -1.89841501e-06 -5.15257125e-06 2.15659929e-06
      1.36200615e-05 1.42490180e-05 1.08802224e-05 1.13657252e-05
      3.95284223e-05 4.05365899e-05 4.08319320e-05 3.98542725e-05
      3.26709524e-05 2.88612137e-05 2.64171122e-05 3.50911650e-05
      3.52093666e-05 8.90104002e-06 8.64750018e-06 5.79671359e-06
      6.12480108e-06 9.51764468e-06 8.97114387e-06 8.68851021e-06
      6.24311269e-06 2.00744707e-05 2.01288003e-05 1.84120672e-05
      1.83077154e-05 4.55727877e-06 4.67185174e-07 -6.95586095e-08
      5.93396017e-08 -2.93076064e-05 -1.56268779e-05 -1.09318471e-05
      -9.70134624e-06 2.34248660e-06 -1.00687856e-07 -5.17784292e-06
      2.19985893e-07 3.49918218e-06 1.91732511e-06 1.87325384e-06
      -8.01300018e-07 -4.84800103e-06 2.05966148e-06 2.08429265e-06
      6.98607937e-06 6.92424555e-06 1.76974190e-05 8.21251615e-06
      3.81199497e-05 3.32594645e-05 3.34841643e-05 3.38863501e-05
      2.91938504e-05 1.94823733e-05 2.51560959e-05 2.36093892e-05
      3.24925604e-05 1.76727790e-05 6.02877390e-06 5.79845391e-06
      3.07876462e-06 3.25756650e-06 2.81799862e-06 2.84104408e-06
      3.16813157e-06 -1.65192023e-06 -1.47695118e-06 -1.41667590e-06
      -1.44403862e-06 -1.17780485e-06 -1.90774972e-06 -1.17711966e-06
      -2.94071215e-05 -1.68162042e-05 -8.28621705e-06 -7.31888622e-06
      1.16527090e-05 9.93497338e-07 4.92377558e-06 9.71973350e-06
      9.67352298e-06 9.19247032e-06 1.99191891e-06 1.91024264e-06
      3.32188074e-06 2.37084646e-06 2.10136182e-06 2.02053889e-05
      6.49366302e-06 7.05885395e-06 8.33750164e-06 5.95904521e-06
      4.03065860e-06 -2.65134304e-07 2.93945322e-05 2.76604969e-05
      2.79028809e-05 1.08714576e-05 -2.30370756e-06 -1.48956315e-06
      4.41847442e-06 4.20239030e-06 -1.30429578e-06 -1.29257760e-05
      -1.31371326e-05 -5.18217121e-06 -1.81611711e-06 -4.58654085e-06
      -4.30928185e-06 -4.43763201e-06 -4.58070735e-06 -1.11426189e-05
      -1.57556715e-05 -1.56579754e-05 -3.20304025e-05 -3.18831808e-05
      -2.68302356e-05 -2.18514670e-05 -1.84267174e-05 -2.32283651e-06
      2.90200978e-06 8.29549390e-06 1.06775769e-05 1.48103300e-05
      1.02481326e-05 3.90761033e-06 8.42551799e-06 8.25670850e-06
      5.76996354e-06 8.86654379e-06 2.01258845e-05 2.01802977e-05
      6.17814021e-06 2.56664703e-06 4.55034524e-06 7.06794162e-06
      7.11370467e-06 4.30492537e-06 3.71612657e-07 -3.50505388e-06
      2.06321201e-05 2.07062803e-05 -4.63358674e-07 -4.28865434e-07
      3.38137579e-06 -5.20973208e-06 -6.49477033e-06 -1.39822323e-05
      -1.45482854e-05 -2.59424978e-05 -2.63098664e-05 -2.64281225e-05
      -2.92374225e-05 -2.96769667e-05 -2.90896187e-05 -4.84018819e-05
      -4.00744357e-05 -4.14112983e-05 -3.12867305e-05 -3.31394767e-05
      -1.84500022e-05 -1.60892978e-05 -8.43898943e-06 -5.87024533e-06
      -4.76022024e-06 -3.03608385e-06 5.28159899e-06 5.19679088e-06
      5.42811085e-06 -1.06595439e-06 -8.71643294e-07 1.20124005e-05
      1.60215895e-05 1.35761675e-05 6.89581339e-06 5.28960891e-06
      6.23534925e-06 6.28815042e-06 8.68951793e-06 7.33110846e-06
      1.25809665e-05 1.25897495e-05 -1.23115160e-06 -6.89077694e-07
      -1.25298902e-06 -1.22848098e-06 -3.96052656e-06 -9.61281512e-06
      -1.34658012e-05 -2.22882154e-05 -1.55316357e-05 -1.53134497e-05
      2.17939714e-06 -1.43087470e-06 -1.23222517e-05 -4.28727326e-05
      -4.58252762e-05 -2.88118281e-05 -2.88606152e-05 -3.79405392e-05
      -3.52103452e-05 -1.81123087e-05 -1.53969722e-05 -1.67057169e-05
      -1.63451332e-05 -2.25754302e-05 -1.52617686e-05 -6.82596465e-06
      -6.90146362e-06 -6.95299059e-06 -6.91846617e-06 -6.88040745e-06
      -6.94874916e-06 5.11319377e-06 4.95735458e-06 4.94818778e-06
      2.34809613e-06 2.44602120e-06 -2.42782541e-08 -1.16595643e-07
      8.67368684e-08 1.31525567e-07 3.03198988e-07 8.80248626e-06
      7.32501530e-06 3.54676922e-06 3.62624019e-06 -9.49018442e-07
      -9.40418317e-07 5.03316505e-06 5.18678871e-06 5.26065196e-06
      5.02771491e-06 5.21087713e-06 3.63705726e-06 -4.17934558e-07
      1.01793671e-06 1.16948979e-06 1.18189575e-06 -9.19784924e-08
      -1.38643591e-05 -1.66937461e-05 -1.68467996e-05 -1.81180021e-05
      -1.54727550e-05 -1.68195766e-05 -1.66600894e-05 -1.68738734e-05
      -1.66438967e-05 2.59834769e-06 4.06980507e-06 4.05786841e-06
      4.12961117e-06 8.23676783e-06 8.40835764e-06 1.10600467e-05
      1.11818217e-05 4.93410971e-06 4.81565758e-06 2.39948531e-06
      2.41158614e-06 -6.33420782e-08 -2.47023095e-08 5.75811221e-09</_>
    <_>
      -2.96957463e-08 -1.97115195e-08 3.39648807e-08 4.85661111e-08
      -1.14162752e-07 2.57454840e-08 -1.20050521e-08 1.68460019e-08
      -3.88530043e-06 -5.87944442e-06 -6.01268357e-06 -5.94893481e-06
      -3.45219200e-06 1.05453375e-06 -5.87589454e-07 2.35323000e-06
      9.94458674e-07 9.76351771e-07 8.82579627e-07 3.05009030e-06
      1.01027297e-06 1.01719979e-06 9.13955603e-07 9.11879965e-07
      9.95914888e-07 9.68902668e-07 9.47188767e-07 9.24353401e-07
      9.54382017e-07 -1.45230126e-06 9.92484388e-07 -5.14424642e-07
      -9.82591428e-06 -3.56357145e-06 -3.81023165e-06 -2.13602493e-06
      -2.03429727e-06 -4.88889569e-08 -6.44078142e-08 1.34080613e-09
      -1.16639391e-08 -4.21888879e-09 1.69291958e-08 6.49007319e-08
      4.87785670e-08 6.72476546e-08 -1.50920584e-07 1.49060266e-08
      9.25060384e-09 -4.02322833e-08 9.06969522e-09 1.68560899e-08
      -3.76912681e-06 -3.56122473e-06 -5.17940589e-06 -7.40171072e-06
      -4.49256640e-06 -4.63364813e-06 -2.79413280e-06 -2.11083625e-06
      -2.17175807e-06 -1.98560315e-06 -2.38690700e-06 -2.23203347e-06
      -2.24126074e-06 -1.59187744e-06 -1.36525807e-06 -1.38399082e-06
      -1.49390610e-06 -2.08481924e-06 -6.80585526e-06 -2.05919991e-06
      -3.02104036e-06 -2.55123928e-06 -3.23729978e-06 -1.92540688e-06
      -5.57657722e-06 -5.24736879e-06 -5.01367822e-06 -3.79256812e-06
      -2.07713083e-06 -9.91882075e-07 -8.91042589e-07 6.79899870e-08
      1.41157386e-07 -1.16639391e-08 6.49007319e-08 -5.83196957e-09
      7.64079289e-08 9.27851929e-08 8.56784652e-08 -1.54597103e-07
      -2.58890633e-08 2.74479834e-08 7.67567556e-08 6.30273123e-09
      3.05668709e-06 -6.93330776e-06 -6.56920247e-06 -1.29667023e-05
      -1.37906545e-05 -1.61384996e-05 -1.62244232e-05 -1.08732420e-05
      -1.08303393e-05 -9.07609228e-06 -9.91129764e-06 -9.80702407e-06
      -6.46784974e-06 -9.00824034e-06 -1.52640641e-05 -5.49267315e-06
      -5.30471698e-06 -5.39506118e-06 -1.72470973e-05 -1.38516207e-05
      -1.37142515e-05 -1.36932558e-05 -2.24727391e-05 -2.03955951e-05
      -2.42635379e-05 -2.64890077e-05 -2.34573054e-05 -1.29824630e-05
      -5.18662364e-06 -2.44607077e-06 -9.17808791e-07 -1.59513462e-07
      -2.33278783e-08 1.62251823e-07 -2.39589468e-08 -9.68919966e-09
      -3.68630531e-08 -2.03086188e-08 1.41168650e-08 1.12840311e-07
      2.22095711e-08 -2.65414890e-08 3.69962478e-08 -1.02385702e-05
      -8.61817625e-06 -2.08513993e-05 -2.70626770e-05 -3.14880454e-05
      -2.79683354e-05 -2.67479900e-05 -2.03931049e-05 -2.05946744e-05
      -1.70076601e-05 -1.78959672e-05 -1.81145479e-05 -1.80192619e-05
      -9.03113414e-06 -5.85586304e-06 -1.61191711e-05 -1.51712056e-05
      -1.82976019e-05 -1.79037615e-05 -2.36169944e-05 -2.37675067e-05
      -2.72925099e-05 -2.84391099e-05 -2.50422509e-05 -3.02931567e-05
      -2.47999506e-05 -3.67613502e-05 -3.75144773e-05 -2.53008038e-05
      -1.73282315e-05 -6.20137598e-06 -3.83973475e-06 -1.28046076e-06
      -1.49684138e-06 -1.49559003e-06 0. 3.73539635e-08 7.41236619e-08
      -3.30335510e-08 -1.47736436e-08 -5.51438255e-08 -2.77061307e-08
      1.07053211e-07 8.92936143e-08 -5.12968154e-06 -1.14794102e-05
      -1.52018238e-05 -2.54491879e-05 -9.18371188e-06 -8.99712450e-06
      -8.99049701e-06 -1.45311347e-07 1.73223142e-08 -1.25860140e-07
      -3.38286839e-08 7.64001484e-08 5.61605233e-08 -4.62202614e-08
      -1.45735921e-08 -9.16055143e-08 -5.92920878e-06 -5.75866306e-06
      -6.10029429e-06 -1.49507050e-05 -1.50528485e-05 -1.74559536e-05
      -2.05067208e-05 -2.64520568e-05 -1.94670829e-05 -1.93379146e-05
      -2.47963126e-05 -3.37901911e-05 -3.53029791e-05 -2.62586855e-05
      -7.76271554e-06 -1.50188885e-06 4.23556834e-08 -2.44812190e-06
      -1.48715219e-06 1.14280290e-07 -1.26566668e-08 5.97992624e-08
      8.11438454e-08 6.67852191e-08 1.07554371e-07 -7.84668046e-08
      7.24945721e-07 3.06455422e-06 -7.43321493e-09 -3.73149260e-06
      -1.12872158e-06 3.94996569e-08 4.05761007e-08 2.99065555e-08
      -8.95814622e-08 -4.40675922e-06 -4.50494281e-06 -4.43346244e-06
      -9.31080422e-08 2.32794459e-08 -4.52384347e-06 -4.40871781e-06
      -4.58928116e-06 5.73472967e-08 6.01802554e-08 3.42282513e-09
      6.50695640e-08 -1.35569316e-08 -1.04722497e-08 -5.96395103e-06
      -8.47512001e-06 -8.45063551e-06 -8.37080188e-06 -1.21418925e-05
      -1.79237395e-05 -2.46896070e-05 -2.49184595e-05 -1.46193697e-05
      -2.42595661e-06 5.98528550e-06 4.75452816e-06 7.14678254e-06
      -2.52713585e-06 -1.97400585e-08 0. 6.98631126e-08 3.95461761e-08
      -1.44407551e-07 2.60730335e-08 -1.31350175e-08 6.04097579e-07
      6.54952328e-06 7.67098481e-06 5.56334089e-06 7.21771949e-06
      5.23027914e-08 -4.48557103e-06 -4.43083945e-06 -4.57349597e-06
      -4.51032429e-06 -4.48594528e-06 -4.44428952e-06 -4.55674535e-06
      -4.37914150e-06 -4.32240586e-06 -4.54604015e-06 -4.37220797e-06
      -4.54902738e-06 -4.47162120e-06 -4.55029476e-06 -4.48580295e-06
      -4.07622949e-08 -2.28580078e-07 -3.84665704e-08 -5.96912696e-06
      -5.99677742e-06 -5.85658790e-06 -8.39718905e-06 -8.51081859e-06
      -1.20293207e-05 -2.25441599e-05 -1.39506637e-05 1.06413631e-06
      1.55762211e-06 4.13164889e-06 4.72828060e-06 5.71187411e-06
      -1.46965635e-06 -1.49137111e-06 -2.48580694e-08 4.84706071e-08
      5.75994612e-08 -1.74902404e-08 -8.77280637e-10 3.15429475e-06
      1.29537684e-05 1.41687178e-05 5.82815755e-06 3.95575216e-06
      -4.50324524e-06 -9.97360530e-06 -9.84271719e-06 -9.80587993e-06
      -1.05706122e-05 -1.05934978e-05 -1.06182324e-05 -1.04615483e-05
      -1.06377238e-05 -1.06301013e-05 -5.17868966e-06 -5.17716990e-06
      -4.45822843e-06 -4.42746204e-06 -4.39784026e-06 -4.57410579e-06
      -4.55092186e-06 -4.44034777e-06 -5.50383206e-08 5.93461031e-08
      4.85915521e-08 -5.97878579e-06 -5.95136635e-06 -5.99182204e-06
      -5.98145743e-06 -1.43006619e-05 -4.09953373e-06 3.43979696e-06
      5.97894314e-06 1.65141057e-06 3.20867798e-06 3.25117912e-06
      6.73586237e-06 -1.42063845e-06 2.15423661e-08 1.87924467e-08
      2.32062316e-08 2.17922000e-08 2.56986755e-06 9.03919226e-06
      1.43915295e-05 1.45346758e-05 5.78452318e-06 3.61511024e-06
      -8.35482660e-06 -9.82608617e-06 -1.05622948e-05 -1.05734362e-05
      -1.34571892e-05 -1.34775537e-05 -1.35260116e-05 -1.35498512e-05
      -1.34404954e-05 -1.41882974e-05 -1.40661541e-05 -1.41182281e-05
      -1.40638431e-05 -8.07551078e-06 -9.32204330e-06 -8.11080099e-06
      -4.53648181e-06 -4.44851457e-06 -4.55228110e-06 -9.13458825e-06
      -9.06028436e-06 -9.06420428e-06 -9.06803143e-06 -1.50102987e-05
      -1.49527887e-05 -1.78319660e-05 -6.69832070e-06 8.93648485e-06
      1.38792620e-05 8.11882001e-06 5.22412074e-06 -3.26553936e-06
      -2.25588269e-06 -1.46370985e-06 8.40495957e-08 6.65407995e-08
      4.61137795e-09 9.93672415e-08 2.76314699e-06 2.57204829e-06
      9.03071850e-06 8.98514099e-06 -1.38544658e-06 -3.94356584e-06
      -6.71182625e-06 -1.26052028e-05 -1.62381657e-05 -1.39524436e-05
      -1.92143725e-05 -2.34423987e-05 -2.03984600e-05 -2.09801692e-05
      -2.33409446e-05 -2.17640809e-05 -2.18684308e-05 -1.78188075e-05
      -2.10772250e-05 -1.63582172e-05 -1.99281476e-05 -1.06484531e-05
      -1.72742693e-05 -1.41803557e-05 -1.34790407e-05 -9.10404560e-06
      -9.11012648e-06 -9.07246340e-06 -8.96106303e-06 -9.04539138e-06
      -9.97936877e-06 -1.78238206e-05 -2.95413884e-07 1.08310569e-05
      1.25533161e-05 2.66202824e-06 -4.80613471e-06 -1.73307615e-06
      -1.48344827e-06 -1.49200707e-06 1.44309036e-08 2.83345152e-08
      2.32062316e-08 4.14312495e-08 2.55290888e-06 2.56768681e-06
      8.48554282e-06 8.51997265e-06 7.54441317e-06 -5.56127043e-06
      -7.95671076e-06 -2.02758656e-05 -2.16822427e-05 -2.26491229e-05
      -2.21276605e-05 -2.23023762e-05 -2.23697098e-05 -2.32071216e-05
      -2.30595670e-05 -2.44995881e-05 -2.16578665e-05 -2.89681702e-05
      -2.76983064e-05 -2.86980212e-05 -2.32262155e-05 -3.34596189e-05
      -2.74016656e-05 -2.45450901e-05 -2.25605127e-05 -1.66147020e-05
      -1.20640107e-05 -9.20890307e-06 -9.03766977e-06 -7.66081121e-06
      -5.51007497e-06 -1.25947781e-05 9.97491679e-06 1.25321167e-05
      9.89404816e-06 3.67696180e-06 -1.01659607e-05 -2.25196959e-06
      -1.52920052e-06 9.93388838e-08 1.14117462e-07 3.32755903e-08
      4.47658337e-08 2.03885531e-08 0. 3.40423298e-08 2.34560655e-08
      2.78176095e-08 -1.53415609e-08 -5.85478759e-08 -1.09460791e-06
      -1.74979846e-06 7.16101385e-06 8.08032473e-06 4.29353076e-06
      7.84854274e-06 4.46426384e-06 2.28414433e-06 2.40801774e-06
      -2.97050315e-06 -9.57202428e-06 -1.28056345e-05 -7.74603632e-06
      -1.28663760e-05 -1.90389419e-05 -3.34033211e-05 -2.80972417e-05
      -2.75189341e-05 -2.08856090e-05 -1.97005811e-05 -1.20495934e-05
      -9.08896436e-06 -8.97872906e-06 -7.69971120e-06 -5.39497114e-06
      7.72734074e-06 9.56316399e-06 1.23918508e-05 9.16455610e-06
      4.51645474e-06 -2.60650791e-06 -1.46566185e-06 -1.44298758e-06
      -3.65249022e-08 2.61537441e-08 6.54231558e-09 9.28249264e-08
      4.47658337e-08 3.07077492e-08 1.40038608e-07 4.47658337e-08
      5.26544213e-08 -1.02672516e-07 9.54061576e-08 -5.53455166e-08
      2.29597834e-08 9.12573705e-06 8.88209252e-06 8.98764756e-06
      9.05769139e-06 9.00304167e-06 9.04013814e-06 6.22286188e-06
      3.36465177e-06 6.47674915e-06 -2.50471430e-06 -1.68297756e-05
      -2.14580741e-05 -3.49824913e-05 -3.35670375e-05 -2.81009306e-05
      -2.51284491e-05 -2.38697849e-05 -2.08975798e-05 -1.47386481e-05
      -8.98612052e-06 -7.71229134e-06 -4.15728437e-06 1.19957285e-05
      1.32051755e-05 9.29042108e-06 1.59494939e-05 1.14142476e-05
      8.42893223e-06 7.90060949e-06 3.04879927e-06 -5.47669732e-09
      5.39394733e-08 6.82046633e-08 2.01387191e-08 3.59732688e-08
      4.02774383e-08 5.10410771e-08 2.49834348e-10 4.66622971e-08
      4.99668695e-10 -6.00435257e-08 -7.59934480e-08 -5.65701512e-08
      -7.32981036e-08 -8.21479347e-08 9.06695277e-06 8.88865907e-06
      9.17751186e-06 8.89108924e-06 8.35825176e-06 6.16772013e-06
      6.14625424e-06 6.19314676e-07 7.20681669e-07 -1.83900065e-05
      -2.68619624e-05 -3.94214221e-05 -2.80868971e-05 -2.81853499e-05
      -2.50857411e-05 -2.44108651e-05 -2.09791142e-05 -1.02236854e-05
      -9.23096741e-06 -5.41823374e-06 1.56125373e-06 7.20070329e-06
      1.43685620e-05 1.52566790e-05 1.53829096e-05 1.43900088e-05
      1.01020623e-05 9.16695808e-06 -1.42020679e-06 1.79206161e-08
      -7.82778145e-08 5.51355512e-08 2.25417036e-08 4.64124632e-08
      1.57452021e-07 1.00693596e-08 2.01387191e-08 1.29281815e-07 0.
      -5.68611647e-08 4.34079084e-08 -9.17912999e-08 6.28889154e-08
      3.80427565e-08 8.88240174e-06 8.98876806e-06 9.05348952e-06
      8.91279069e-06 8.33615832e-06 8.25117058e-06 2.69312136e-06
      3.21974358e-06 -7.91420064e-07 -1.97156442e-05 -3.04778823e-05
      -3.04381592e-05 -1.89966522e-05 -2.81357206e-05 -2.51047350e-05
      -2.44618204e-05 -1.93263440e-05 -1.03592356e-05 -5.49119477e-06
      -2.30675096e-06 4.03791319e-06 1.35872724e-05 2.59438639e-05
      1.61791068e-05 1.68062070e-05 1.76669382e-05 1.53834735e-05
      7.34585274e-06 9.91580436e-08 4.71777106e-08 -3.26182885e-08
      2.49834348e-10 8.18688264e-08 6.84889727e-08 2.01387191e-08
      9.09112288e-08 0. 7.49503071e-10 7.20665412e-08 -3.98497271e-08
      7.70753701e-08 -7.74750859e-08 -4.51930688e-08 -1.67808558e-08
      9.12368796e-06 8.99583029e-06 8.31310354e-06 8.37965945e-06
      8.36116760e-06 8.94209461e-06 5.27298062e-06 1.75151058e-06
      -8.43401722e-06 -2.88990341e-05 -2.74454324e-05 -2.48878969e-05
      -1.92992793e-05 -1.61100943e-05 -2.44261355e-05 -2.15090604e-05
      -1.64843859e-05 -1.03197062e-05 -5.58940428e-06 -1.86640671e-06
      1.73516655e-05 2.42696206e-05 2.35173338e-05 1.76635112e-05
      1.75374025e-05 1.38891928e-05 1.23895361e-05 7.34713831e-06
      8.73674892e-08 -1.54702153e-08 1.75773263e-08 0. 0. 0. 0. 0. 0. 0.
      0. 6.00596479e-08 2.12925304e-08 6.42572218e-08 5.74545211e-08
      1.04756186e-08 3.46127429e-08 8.49257594e-06 8.43296584e-06
      5.32482181e-06 5.43010538e-06 6.01295733e-06 6.01756346e-06
      -4.45826026e-06 -1.99841616e-05 -2.75657330e-05 -2.49702261e-05
      -2.49451477e-05 -1.60717791e-05 -1.59124702e-05 -1.55828111e-05
      -1.62345987e-05 -1.02598096e-05 -9.08276434e-06 -3.91875665e-06
      7.69715552e-06 1.82757831e-05 1.63722161e-05 1.46679686e-05
      1.76041140e-05 1.76550457e-05 1.54113532e-05 1.17732407e-05
      7.35074764e-06 4.95078348e-06 0. 2.43093794e-08 0. 0. 0. 0. 0. 0.
      0. 0. -2.06972111e-08 1.35054364e-07 9.08892606e-09 1.50227208e-07
      2.23003212e-07 0. 1.21241413e-07 -6.43591079e-07 -3.82499456e-06
      5.83141082e-06 5.93886716e-06 4.07914786e-06 -2.20646712e-06
      -1.96865312e-05 -2.47186781e-05 -2.19126705e-05 -2.19309859e-05
      -1.61172884e-05 -1.48977451e-05 -7.20530716e-06 -1.63347777e-05
      -9.12089945e-06 -7.72471049e-06 -2.31402151e-08 1.21468684e-05
      2.24760206e-05 1.61078769e-05 1.03375996e-05 1.45358663e-05
      1.60109757e-05 1.48207810e-05 1.04104847e-05 7.34623018e-06
      4.89705599e-06 5.25442516e-08 4.51708093e-09 0. 0. 0. 0. 0. 0. 0.
      0. 6.57697825e-08 -3.53729157e-09 6.83964174e-08 1.97017869e-08
      1.90375360e-08 4.19078532e-08 5.20930499e-08 1.03673408e-07
      -2.93174685e-06 -3.04051332e-06 5.52126274e-08 -7.73029399e-07
      -9.99134591e-06 -1.87729147e-05 -2.18471196e-05 -1.61260086e-05
      -1.52035527e-05 -1.03650409e-05 -1.03364609e-05 -7.32678245e-06
      1.20646206e-07 -9.03163709e-06 -6.20889250e-06 8.99614679e-06
      1.47003357e-05 1.23501295e-05 1.15516086e-05 1.59277515e-05
      1.61697826e-05 1.54746904e-05 1.49572070e-05 1.04632700e-05
      6.08322443e-06 1.94148377e-08 0. 3.88296755e-08 0. 0. 0. 0. 0. 0.
      0. 0. 1.25267803e-07 -7.96659805e-09 8.60918945e-08 7.67939241e-08
      1.52796105e-08 1.15553284e-07 6.65511806e-08 4.64124632e-08
      -3.14878207e-06 -7.02039458e-08 8.36451181e-06 -1.24215021e-05
      -2.36118431e-05 -2.18616096e-05 -1.61285334e-05 -1.53513884e-05
      -1.09588791e-05 -1.04197279e-05 -4.27613213e-06 1.44529849e-07
      -1.21423369e-07 3.51256449e-06 1.07911910e-05 2.66102288e-05
      2.55396135e-05 2.05040506e-05 2.52462305e-05 1.61089829e-05
      1.53848687e-05 1.10051215e-05 1.03273978e-05 6.16767920e-06
      3.88296755e-08 3.35068755e-08 1.94148377e-08 4.51708093e-09 0. 0.
      0. 0. 0. 0. 0. 0. 6.96109623e-08 1.04328407e-07 6.77049954e-08
      7.76586688e-08 -8.96419472e-09 1.35321429e-07 1.28737341e-07
      -3.17508693e-06 5.15403826e-06 2.72870557e-06 4.33781406e-06
      -2.34132531e-05 -2.99621206e-05 -2.43400627e-05 -2.45079336e-05
      -1.81964260e-05 -1.03495440e-05 -8.91971558e-06 9.84979707e-08
      -2.95881399e-08 8.02885012e-08 6.90593970e-06 1.46575412e-05
      2.62003778e-05 2.85694805e-05 1.47004912e-05 2.50069224e-05
      2.43529994e-05 2.01676194e-05 1.04468545e-05 1.17108436e-06
      2.23642793e-08 1.84457853e-08 1.94148377e-08 4.37242171e-08
      1.43061660e-08 0. 0. 0. 0. 0. 0. 0. 0. 9.42015106e-08
      3.75111284e-08 8.71355894e-08 4.33449507e-08 9.77351959e-08
      5.37335609e-06 8.44909755e-06 5.23872768e-06 7.64928609e-06
      3.16858268e-06 8.18632486e-07 -2.16214594e-05 -2.42245260e-05
      -1.68616152e-05 -9.04803346e-06 -9.01406474e-06 -9.02001466e-06
      -9.11378265e-06 -9.02426564e-06 -5.43553779e-06 -1.40310885e-06
      3.58408306e-06 1.34384727e-05 2.72369907e-05 2.26494340e-05
      1.41576693e-05 2.00875584e-05 1.94313016e-05 1.50663100e-05
      9.10796552e-06 -4.80210822e-08 5.05508062e-08 0. 2.43093794e-08 0.
      4.23777031e-08 0. 0. 0. 0. 0. 0. 0. 0. 9.78931247e-09
      1.10001544e-07 7.73317694e-08 5.49830838e-06 8.54459631e-06
      8.42589088e-06 1.10539377e-05 1.09609327e-05 1.36636099e-05
      9.14609973e-06 -1.10646624e-05 -1.63829354e-05 -1.02192689e-05
      -9.04606259e-06 -9.00057512e-06 -8.94896220e-06 -8.95496123e-06
      -1.43984789e-05 -1.43802818e-05 -7.86779310e-06 -5.02979027e-08
      1.02658123e-05 2.04870466e-05 2.44537623e-05 2.44241637e-05
      1.12935913e-05 1.94208460e-05 1.62863835e-05 9.22241452e-06
      8.91092986e-06 9.07285266e-06 3.59491885e-08 2.43093794e-08
      4.51708093e-09 4.37242171e-08 4.89454255e-09 0. 0. 0. 0. 0. 0. 0.
      0. 3.04339960e-06 8.37913740e-06 8.49975368e-06 8.44997157e-06
      1.09866278e-05 1.09674220e-05 1.68883107e-05 1.75366349e-05
      1.74726647e-05 2.28001636e-06 -1.41675919e-05 -9.00789473e-06
      -9.01882504e-06 -9.10205017e-06 -9.02665579e-06 -1.45083322e-05
      -1.44766600e-05 -1.44550286e-05 -1.99084552e-05 -1.75324003e-05
      -3.39695043e-06 3.96785254e-06 1.84548917e-05 2.00890154e-05
      1.80341303e-05 1.07876122e-05 1.52287239e-05 9.06935293e-06
      9.02566262e-06 9.05368142e-06 9.14579596e-06 -2.72098681e-08
      4.89454255e-09 1.35512428e-08 4.89454255e-09 5.82445132e-08
      2.32062316e-08 6.64597053e-08 6.28005665e-08 2.32062316e-08
      9.49991232e-08 1.43553054e-08 9.54161905e-08 2.97279553e-06
      8.48802028e-06 8.37041807e-06 1.09516577e-05 1.08357981e-05
      1.68653442e-05 1.26644109e-05 1.26121595e-05 2.25829626e-05
      2.22625240e-05 1.66992358e-08 -8.10712118e-06 -9.11050392e-06
      -8.92104254e-06 -1.45026224e-05 -1.45120584e-05 -1.74359138e-05
      -1.74914694e-05 -1.98719281e-05 -2.00498507e-05 -8.08924506e-06
      1.14651596e-06 1.55293019e-05 1.51963040e-05 1.49617272e-05
      1.10058418e-05 3.32043925e-07 4.39784486e-07 9.11996267e-06
      9.09362552e-06 9.11516327e-06 9.11042116e-06 -6.13281017e-08 0. 0.
      0. 0. 3.89029076e-08 0. 2.60512567e-09 6.46110934e-08
      6.60854198e-08 2.84164834e-08 8.42971895e-06 8.45905561e-06
      8.36105755e-06 1.10135661e-05 1.08216873e-05 1.75814075e-05
      1.27194990e-05 1.04709125e-05 1.76707326e-05 2.68557560e-05
      9.17357011e-06 -3.95087045e-06 -9.05044453e-06 -1.45447675e-05
      -1.74951365e-05 -1.75722289e-05 -1.97397858e-05 -2.00332288e-05
      -1.98769067e-05 -2.58501423e-05 -2.58150831e-05 -3.85793101e-06
      2.83720397e-06 1.48523786e-05 1.39066669e-05 6.02757700e-06
      9.08842958e-06 3.92917741e-07 3.82810953e-07 9.06128116e-06
      9.11448478e-06 9.21064111e-06 9.11749165e-09 4.67065924e-08 0. 0.
      0. 0. 7.43665609e-08 4.64124632e-08 1.39956427e-07 6.96186930e-08
      1.16853968e-07 5.47741365e-06 8.43891667e-06 8.39946824e-06
      1.09525399e-05 1.08077893e-05 1.74052566e-05 1.75591067e-05
      2.18904916e-05 2.34582330e-05 2.39898200e-05 1.72601722e-05
      4.32348043e-06 -6.59064926e-06 -1.45004888e-05 -1.98331090e-05
      -2.02072479e-05 -2.00641734e-05 -1.98685084e-05 -2.58848086e-05
      -2.59732733e-05 -3.09048301e-05 -2.67515643e-05 -7.33025081e-06
      8.95150424e-06 4.54536848e-06 9.13380154e-06 6.03634271e-06
      9.13392068e-06 9.13769418e-06 9.09867049e-06 9.23212247e-06
      9.08692073e-06 -7.96122492e-08 1.47912074e-08 9.69240403e-08 0. 0.
      0. 0. 3.30427099e-08 1.00693596e-08 7.10246866e-08 8.45159138e-06
      8.50072047e-06 8.43596081e-06 1.09220418e-05 1.09734392e-05
      1.68586885e-05 1.75922323e-05 2.19196263e-05 2.17781671e-05
      2.54805927e-05 3.06579932e-05 2.06373043e-05 8.31969919e-06
      -1.33254262e-05 -1.56986662e-05 -1.99177721e-05 -1.99968836e-05
      -1.99114675e-05 -2.59575445e-05 -2.65887593e-05 -3.10749092e-05
      -3.08916788e-05 -3.26967238e-05 -3.25360161e-05 -1.33123676e-05
      3.40429551e-06 3.37853771e-06 9.13488839e-06 5.93332425e-06
      9.01756721e-06 9.10040035e-06 9.06250352e-06 9.05255820e-06
      9.20652019e-06 5.91353420e-08 1.34766850e-07 4.44987620e-08 0. 0.
      0. 0. 8.72290684e-08 2.91079072e-08 8.38330652e-06 8.42559712e-06
      1.09665725e-05 1.10216088e-05 1.09286466e-05 2.14096290e-05
      2.18506848e-05 2.19448430e-05 2.16560111e-05 2.56393378e-05
      3.28701062e-05 3.28841197e-05 2.10431190e-05 -9.91362140e-06
      -1.84313085e-05 -2.01410912e-05 -2.00394716e-05 -1.99484675e-05
      -2.59101089e-05 -2.66827810e-05 -2.65744966e-05 -3.08765848e-05
      -3.15127145e-05 -4.18552518e-05 -2.52999489e-05 -9.93233061e-06
      -5.53806103e-06 3.51147173e-06 5.94840549e-06 6.18363265e-06
      9.08910079e-06 9.02477677e-06 9.16855606e-06 9.01309886e-06
      9.15712735e-06 -2.61386397e-08 1.91811829e-08 1.28908667e-07 0. 0.
      0. 0. 6.27237782e-08 5.51152289e-06 8.49335538e-06 1.09817984e-05
      1.09935781e-05 1.09792991e-05 1.10007022e-05 1.60319451e-05
      2.19258200e-05 2.17054458e-05 2.56104595e-05 2.53749731e-05
      3.28974529e-05 3.28522983e-05 1.88164395e-05 -1.20033719e-05
      -1.99828573e-05 -1.99115730e-05 -2.58808814e-05 -2.64834453e-05
      -3.11331205e-05 -3.08392555e-05 -3.15411307e-05 -3.13754826e-05
      -4.18812124e-05 -3.98186858e-05 -1.42687295e-05 -6.83964981e-06
      -2.98801615e-06 6.09405879e-06 6.01241345e-06 8.83015400e-06
      9.11943880e-06 1.20336108e-05 9.11752250e-06 9.08692073e-06
      -8.17930257e-08 8.90586094e-08 2.12925304e-08 6.65379147e-08 0. 0.
      0. 0. 4.78952380e-08 1.09226376e-05 1.09987877e-05 1.09297007e-05
      1.10166475e-05 1.09935781e-05 1.61059452e-05 2.20442998e-05
      2.19693320e-05 2.24775140e-05 2.55263858e-05 2.79465658e-05
      3.27851812e-05 2.81609973e-05 1.62975339e-05 -9.99160056e-06
      -1.71357533e-05 -1.70407748e-05 -2.21598548e-05 -2.81410994e-05
      -2.77352046e-05 -2.81650973e-05 -2.82327310e-05 -3.78791992e-05
      -3.89330344e-05 -2.98212199e-05 -9.61389651e-06 -2.14361037e-07
      1.15713576e-07 -2.42605466e-07 1.20263130e-05 1.20608429e-05
      1.20240811e-05 1.21212133e-05 1.20974473e-05 1.22022639e-05
      9.99990917e-08 4.64124632e-08 7.95630797e-08 2.47734899e-08 0. 0.
      0. 0. 0. 1.10013934e-05 1.10133660e-05 1.10557321e-05
      1.09987877e-05 1.16230403e-05 1.62005399e-05 2.19994927e-05
      2.19788799e-05 2.55446867e-05 2.69762950e-05 3.29034665e-05
      3.28210699e-05 2.84075686e-05 1.56416627e-05 -4.49512936e-06
      -1.23467998e-05 -1.20491795e-05 -1.67874277e-05 -1.68187598e-05
      -1.67646722e-05 -2.25613603e-05 -2.26725715e-05 -2.80719596e-05
      -3.15869474e-05 -3.23129530e-06 1.32785553e-05 1.09506900e-05
      1.58775256e-05 1.78751125e-05 2.01311486e-05 2.32733273e-05
      2.33625851e-05 2.33520805e-05 1.84869059e-05 1.79416693e-05
      8.90081537e-06 -1.30352964e-08 1.30705743e-07 2.86881345e-08 0. 0.
      0. 0. 2.59585750e-06 1.09898956e-05 1.10243254e-05 1.09435287e-05
      1.17396257e-05 1.17111304e-05 2.20076927e-05 2.20569618e-05
      2.19832291e-05 2.55262967e-05 2.80727454e-05 3.29971735e-05
      3.29461109e-05 2.66826282e-05 5.79185189e-06 -4.96808389e-06
      -9.75892817e-06 -9.62371178e-06 -1.41720002e-05 -1.41928413e-05
      -1.40759457e-05 -1.41403643e-05 -1.41893506e-05 -5.14937074e-06
      -1.12443338e-07 1.20671566e-05 2.32528673e-05 3.37499550e-05
      3.12951561e-05 3.15089455e-05 3.36662852e-05 3.68270667e-05
      3.69331647e-05 3.69729933e-05 1.99316892e-05 1.99737096e-05
      1.98920752e-05 1.70177354e-05 1.10004748e-05 1.11225927e-05
      1.10039582e-05 1.10086712e-05 1.09837429e-05 7.37096298e-06
      2.60293723e-06 1.10299206e-05 1.10366054e-05 1.16314586e-05
      1.16654255e-05 2.51727743e-05 2.50724752e-05 3.11354306e-05
      3.10971336e-05 3.47399073e-05 4.18870150e-05 4.20066281e-05
      3.64629886e-05 2.71302724e-05 1.40112061e-05 1.65482709e-06
      -2.15380247e-08 -6.29714464e-07 -6.76442369e-07 -5.33703269e-06
      -5.14190469e-06 -5.04816580e-06 -4.96430584e-06 -3.82881990e-06
      -4.39870327e-08 1.86693251e-05 3.67304165e-05 3.68345100e-05
      3.47112291e-05 3.47282948e-05 3.65208471e-05 3.68433502e-05
      3.69939335e-05 2.78785865e-05 2.05714332e-05 2.05473480e-05
      1.75751375e-05 1.76307385e-05 1.17516402e-05 1.11132395e-05
      1.09932416e-05 1.09793809e-05 1.10460724e-05 1.09958464e-05
      8.02048817e-06 8.18066746e-06 8.06065509e-06 8.72860255e-06
      2.52024092e-05 2.52354512e-05 2.52354512e-05 3.09926472e-05
      3.10117866e-05 3.14307035e-05 3.58790385e-05 3.56690398e-05
      3.50104165e-05 2.85505994e-05 7.60586454e-06 1.09651310e-08
      5.85808095e-08 -2.45096913e-07 4.08452649e-08 1.40732652e-07
      -4.51024061e-06 -4.51031565e-06 -4.51441247e-06 1.42909289e-06
      8.35538413e-06 2.46654654e-05 4.20219549e-05 4.18937489e-05
      3.97201875e-05 3.07961345e-05 3.27108792e-05 2.84526541e-05
      2.84128291e-05 2.85906135e-05 2.06174464e-05 1.75365440e-05
      1.77934198e-05 1.76096655e-05 1.17031477e-05 1.17376094e-05
      1.09732482e-05 1.10348565e-05 1.09622342e-05 1.09549164e-05
      2.80827771e-06 2.54922884e-06 8.69469568e-06 8.64029698e-06
      2.22977033e-05 2.21102673e-05 2.20719467e-05 2.23313018e-05
      2.80119966e-05 2.80333788e-05 3.15931211e-05 2.78225016e-05
      3.01778728e-05 2.65340623e-05 4.34752064e-06 -2.96608664e-06
      -2.90912658e-06 -2.92656773e-06 -2.96926100e-06 -3.10616838e-06
      -2.89261811e-06 -3.02874059e-06 -3.02527110e-06 -4.82994373e-08
      4.59990588e-06 3.34758188e-05 3.58592697e-05 3.68188157e-05
      2.87151106e-05 2.62861577e-05 3.00772535e-05 2.96867547e-05
      3.00395950e-05 1.76332469e-05 1.75849618e-05 1.76874219e-05
      1.75287241e-05 1.76180056e-05 1.17735981e-05 1.17604304e-05
      1.09932416e-05 1.09621415e-05 1.09837429e-05 1.10241008e-05
      2.59349804e-06 2.65276913e-06 2.57289685e-06 3.34048127e-06
      7.73554348e-06 7.85180782e-06 1.68432289e-05 1.67543894e-05
      1.67318267e-05 1.66907812e-05 1.66763311e-05 1.52164848e-05
      1.22871352e-05 5.23757444e-06 -9.44118710e-06 -1.43004108e-05
      -1.42465387e-05 -5.89005003e-06 -3.01892396e-06 -2.98283862e-06
      -2.99598855e-06 -2.88588103e-06 -3.00140823e-06 -1.04224125e-06
      -6.79350751e-06 1.45380418e-05 1.78625469e-05 2.10065646e-05
      2.02641331e-05 2.10131802e-05 2.44791627e-05 2.20395759e-05
      2.20577222e-05 2.21030805e-05 2.21010341e-05 2.20919355e-05
      1.63015120e-05 1.62461693e-05 1.61616736e-05 1.62145134e-05
      1.54799509e-05 1.54869158e-05 1.10086712e-05 1.09837429e-05
      7.87470498e-08 2.53747862e-06 3.47901164e-06 3.27643625e-06
      7.73326337e-06 7.72003477e-06 7.85890643e-06 7.72184831e-06
      1.67563321e-05 1.66936316e-05 1.67594499e-05 1.67071812e-05
      1.39654621e-05 1.05701938e-05 -1.68796523e-05 -1.75846726e-05
      -2.17799970e-05 -2.16544595e-05 -1.90588398e-05 -2.42508486e-05
      -2.13084513e-05 -2.28175686e-05 -2.02364372e-05 -2.23987990e-05
      -6.58927547e-06 4.04210505e-06 4.54675728e-06 3.83025599e-06
      3.96460428e-06 7.25877044e-06 1.00483367e-05 1.00064190e-05
      1.00931866e-05 1.01043061e-05 1.01210935e-05 1.01191372e-05
      1.12326616e-05 1.11935515e-05 1.12644075e-05 1.12185653e-05
      1.00040343e-05 9.33362753e-06 1.82442068e-06 1.29253090e-06
      4.44987620e-08 1.00490652e-07 7.50237064e-07 7.21761523e-07
      5.17815897e-06 5.15605961e-06 5.19262539e-06 5.26185795e-06
      5.05063099e-06 5.14634439e-06 4.99332509e-06 4.99247653e-06
      3.67162784e-06 3.66936411e-06 1.61149831e-06 -1.47075307e-05
      -1.00081206e-05 -1.14696431e-05 -1.30241115e-05 -1.80095467e-05
      -2.01747316e-05 -1.78756200e-05 -1.35545733e-05 -1.02372167e-06
      1.10311964e-06 2.71131216e-06 2.50539938e-06 5.13914438e-06
      5.19459627e-06 5.13738814e-06 5.11528606e-06 5.11550024e-06
      5.31176238e-06 5.13802206e-06 5.13734267e-06 5.15946977e-06
      5.18245588e-06 5.36898779e-06 5.17229910e-06 5.18267598e-06
      4.50934613e-06 4.49282652e-06 0. 3.07493515e-08 5.32453583e-08
      1.12497887e-07 1.44239806e-07 7.44440740e-07 7.34097739e-07
      5.15495276e-06 5.23440804e-06 5.17677245e-06 5.10560130e-06
      5.01649492e-06 5.18314209e-06 5.16927457e-06 5.03535057e-06
      3.64203652e-06 3.82405142e-06 2.09970040e-06 -9.86040163e-07
      -8.75731985e-07 -1.16885144e-06 -5.72230192e-06 -5.84628378e-06
      -6.92159620e-06 -3.85101764e-08 1.04161040e-06 2.61846799e-06
      5.10551081e-06 5.07468030e-06 4.98101008e-06 5.18703837e-06
      5.06162314e-06 5.16365299e-06 5.09694655e-06 5.17845319e-06
      5.19986588e-06 5.24875031e-06 5.15888769e-06 5.24725101e-06
      5.15495276e-06 5.18110437e-06 4.52652466e-06 4.49064601e-06
      5.21025134e-09 1.42842893e-08 5.54362529e-08</_>
    <_>
      1.08853753e-08 2.60874589e-09 -1.85606996e-08 1.22397390e-08
      -1.42871608e-08 7.30291272e-10 -5.26632249e-08 7.30291272e-10
      -2.86371028e-06 -5.94834910e-06 -3.68041333e-06 -3.61815341e-06
      -3.60658964e-06 -3.71170813e-06 -9.57650082e-06 -7.73524243e-06
      -1.02620807e-05 4.97976498e-06 4.98448981e-06 6.08819073e-06
      -1.78069308e-06 -1.33638548e-06 1.15703642e-05 4.86305862e-06
      4.97199380e-06 4.94247888e-06 5.06353354e-06 4.75464003e-06
      2.45147385e-06 -3.37845768e-06 -6.22049311e-06 -6.20362835e-06
      -6.17914429e-06 -3.82357848e-06 -3.71800297e-06 -3.73922421e-06
      -1.08299764e-06 -8.11053766e-08 -1.09585905e-07 -8.43640890e-08 0.
      0. 0. 0. -2.67773226e-09 0. -8.89126639e-08 2.30188952e-08
      -1.41734517e-07 -8.23537221e-08 0. 5.27848520e-08 -2.70527630e-06
      -7.11042003e-06 -1.26991399e-05 -2.43516497e-05 -3.78463119e-06
      -3.65858455e-06 -1.26987388e-05 -1.02346839e-05 -8.22898619e-06
      -5.94321409e-06 -3.90688729e-06 2.39940459e-06 -1.08050881e-06
      -1.07745627e-05 2.24225482e-06 2.39193582e-06 2.40175564e-06
      1.09331154e-07 6.50216589e-06 6.25788152e-06 2.33588153e-07
      -3.89644902e-06 -3.66183644e-06 -1.23197024e-05 -1.23536756e-05
      -1.23189884e-05 -1.85499266e-05 -9.85262159e-06 -3.54373765e-06
      -8.16061672e-08 1.14943048e-10 -1.40313531e-07 0. 0. 0. 0.
      -8.27662916e-09 -3.26419425e-08 2.95938896e-09 -1.92032147e-07
      -3.92587696e-09 2.30188952e-08 -3.34399459e-08 0. -2.30272713e-06
      -1.30627141e-05 -2.14666015e-05 -1.30078051e-05 -2.22304279e-05
      -1.60873824e-05 -9.21098581e-06 -9.14062548e-06 6.77447417e-07
      -3.21999346e-06 2.89391505e-06 -1.76775075e-06 5.13671375e-06
      5.42288490e-06 2.94541428e-06 9.41437793e-06 5.25209362e-06
      -1.36918027e-06 1.52360133e-06 -2.18269705e-07 -9.79952074e-06
      -9.59111549e-06 -2.23970837e-05 -1.91903255e-05 -2.60571032e-05
      -2.86612012e-05 -3.72133218e-05 -1.51278309e-05 -1.25630431e-05
      -2.58339242e-06 -2.64540290e-07 -1.98117533e-07 0. 0. 0. 0.
      -1.85117386e-07 -1.41499470e-08 -2.11324931e-08 -4.13831458e-09
      1.23459580e-08 -1.39270213e-07 1.88805807e-08 -2.12570185e-07
      -1.01154819e-06 -1.95805897e-05 -1.94706281e-05 -3.41652449e-05
      -1.34123929e-05 -6.56312614e-06 -4.58195427e-06 -1.64218932e-06
      -1.65238998e-06 -1.39763904e-06 -1.10256053e-07 8.97599062e-09
      -9.71390151e-08 -3.13847366e-08 -1.55884140e-06 -1.25768565e-05
      -1.10499259e-05 -1.41898145e-05 -1.63543882e-05 -1.62789474e-05
      -2.08578094e-05 -2.26429129e-05 -2.75007296e-05 -4.34393623e-05
      -4.33487439e-05 -4.33244568e-05 -4.34725298e-05 -2.94537622e-05
      -1.69130672e-05 -9.40744394e-06 -3.58788589e-06 5.33549951e-08 0.
      0. 0. 0. 1.15094476e-08 -8.54420961e-08 -1.40000509e-07
      -1.32454161e-07 1.38829881e-08 -7.83216265e-08 -4.04999341e-08
      2.75748334e-06 -1.07088044e-05 -1.60633535e-05 -2.91109245e-05
      -9.70730161e-06 -1.28499823e-06 -1.94724109e-07 8.21374044e-08
      -1.14014568e-07 5.70757841e-08 -2.39872344e-10 -3.33197612e-08
      -1.98513028e-08 -2.19446683e-08 -2.90412636e-08 -4.58895357e-08
      -1.04314950e-07 -1.12992193e-05 -1.10626452e-05 -1.41920382e-05
      -1.40684206e-05 -1.60598738e-05 -2.22302715e-05 -2.22196522e-05
      -2.47374446e-05 -4.02452279e-05 -4.33005625e-05 -4.32834895e-05
      -4.08664419e-05 -2.04772805e-05 -4.19150092e-06 8.46002331e-06
      -6.72218690e-08 0. 0. 0. 0. -7.12621500e-08 -3.67802571e-08
      -2.09267785e-08 -1.94594723e-08 -1.95354151e-08 1.15094476e-08
      -8.28368229e-06 -9.41936560e-06 -1.73145072e-05 -1.35182208e-05
      -1.91731178e-05 -6.83099415e-06 8.69093313e-08 2.03270673e-07
      9.77884369e-08 -2.59891436e-07 -5.86518318e-08 -2.59459654e-07
      5.87163953e-08 -5.95842486e-08 -1.03277664e-07 1.21778868e-07
      -1.87225851e-07 2.79821890e-08 -9.29172472e-08 -3.28452074e-08
      7.61090035e-08 -1.25609205e-07 -3.23718950e-06 -3.14907538e-06
      -1.78991941e-05 -2.22244835e-05 -3.35966615e-05 -4.01964062e-05
      -4.01698635e-05 -4.34552167e-05 -3.43631473e-05 -1.49752159e-05
      -2.75726461e-06 -2.72244779e-06 0. 0. 0. 0. -7.24493034e-08
      2.92116509e-09 2.05226058e-08 -9.24410912e-08 -4.26525837e-08
      -1.33565095e-07 1.87203261e-06 -1.17460786e-05 -6.38186793e-06
      -2.19388203e-05 -1.59274259e-05 -6.29504666e-06 -6.71066255e-06
      9.53970201e-08 -6.22648599e-08 -8.52358517e-06 -8.67459858e-06
      -8.43707585e-06 -8.55644430e-06 -8.37816151e-06 -8.79020354e-06
      -8.64486356e-06 -8.45278919e-06 -8.53955135e-06 -8.52870016e-06
      -8.68182724e-06 -6.95709588e-08 -1.40311883e-07 8.01848969e-08
      -7.15767143e-08 -1.43142870e-05 -2.21793198e-05 -2.74256854e-05
      -3.35125042e-05 -3.36605590e-05 -4.03715567e-05 -3.59194673e-05
      -1.91128238e-05 -9.54383449e-06 -1.12911812e-05 0. 0. 0. 0.
      -2.02959836e-08 -5.30815818e-08 -4.41513883e-08 -5.26632249e-08
      6.95949831e-09 0. 1.71565398e-06 2.06586310e-06 -2.98414784e-06
      -3.31883821e-05 -2.75598595e-05 -1.81872711e-05 -1.47742303e-05
      -8.69556698e-06 -8.44385158e-06 -8.54396239e-06 -8.53535585e-06
      -8.56434872e-06 -8.52673656e-06 -8.65703532e-06 -8.57127543e-06
      -8.44475926e-06 -8.54670179e-06 -8.54973496e-06 -8.63381774e-06
      -8.56406132e-06 -8.67693961e-06 -8.56763108e-06 -8.63865989e-06
      -1.48634001e-07 -3.18778666e-06 -1.42097188e-05 -2.76039191e-05
      -2.74761933e-05 -3.38541213e-05 -3.38384270e-05 -2.76557403e-05
      -1.90355131e-05 -9.62812737e-06 -2.64779646e-06 0. 0. 0. 0.
      1.22397390e-08 0. 0. 1.29700304e-08 0. 0. 2.93563949e-06
      3.12113343e-06 -2.88909632e-07 -1.83789707e-05 -2.30223377e-05
      -2.41385405e-05 -1.78492483e-05 -1.15173443e-05 -1.14100121e-05
      -1.13873530e-05 -1.15675366e-05 -1.14388640e-05 -1.13835267e-05
      -1.17848977e-05 -1.13064889e-05 -1.15379880e-05 -8.57711257e-06
      -8.58990006e-06 -8.52526773e-06 -8.54301197e-06 -8.51714776e-06
      -8.36651998e-06 -8.63695459e-06 -8.59459396e-06 -1.16150632e-05
      -3.09353118e-06 -1.93999422e-05 -2.77985782e-05 -3.37128113e-05
      -3.00483807e-05 -2.74676095e-05 -2.87087937e-06 -2.60501497e-06
      -2.63541369e-06 -2.67487530e-06 8.51709319e-06 3.36643993e-08
      -1.38603129e-09 0. 2.52097685e-08 7.30291272e-10 0. 8.05661315e-08
      0. 7.30291272e-10 7.30291272e-10 2.62356661e-08 -1.13562628e-05
      -2.41052148e-05 -2.11972147e-05 -1.21868525e-05 -4.37957851e-06
      -1.57088689e-05 -4.54676047e-06 -1.96543260e-06 -1.07749656e-05
      -1.71619449e-05 -1.38894675e-05 -1.40964285e-05 -2.23534462e-05
      -1.18629578e-05 -8.29467990e-06 -9.05502111e-06 -8.41838937e-06
      -8.61000717e-06 -8.51357163e-06 -8.36404706e-06 -8.55967392e-06
      -8.58442218e-06 -2.94861957e-06 -3.07153141e-06 -2.41699327e-05
      -3.01214459e-05 -3.00222746e-05 -5.45970579e-06 8.34751881e-06
      8.26922587e-06 -2.58013620e-06 -2.69805264e-06 8.54027076e-06
      -1.33840203e-07 -4.41513883e-08 0. 1.29700304e-08 0.
      1.15094476e-08 2.92116509e-09 0. 1.15094476e-08 2.30188952e-08
      2.67885014e-07 1.88681804e-06 -1.84376859e-05 -2.29927336e-05
      -1.38909118e-05 -5.61107208e-06 -3.39789835e-06 -1.26868672e-05
      -1.56994647e-05 -1.36402141e-05 -1.04517803e-05 -1.61585613e-05
      -3.14831595e-05 -2.29862708e-05 -1.24108055e-05 -3.41910459e-06
      -6.83546386e-06 -8.39346376e-06 -8.57893338e-06 -8.54961127e-06
      -8.41930796e-06 -8.51792174e-06 -8.50520701e-06 -8.47362713e-08
      -6.56310348e-08 -2.01150215e-05 -2.68286367e-05 -2.07313333e-05
      1.48448244e-05 8.52242556e-06 8.48313448e-06 -2.95111681e-06
      -2.67418227e-06 8.58442218e-06 -6.93015645e-10 -2.07904693e-09
      1.15094476e-08 0. 2.30188952e-08 7.30291272e-10 0. 1.29700304e-08
      7.30291272e-10 7.30291272e-10 -1.39885444e-07 -1.41081443e-07
      1.90055766e-06 2.36742471e-06 -7.32689614e-07 8.05195396e-06
      -2.04137314e-06 1.62193760e-06 -1.45426634e-06 -4.41620068e-06
      9.94871880e-06 -3.97229269e-06 -1.08858958e-05 -1.20092600e-05
      -7.12801420e-06 1.29678829e-05 1.33233993e-06 -8.34526600e-06
      -8.59658212e-06 -8.50869310e-06 -8.48087893e-06 -8.58243311e-06
      -8.43143789e-06 -8.36919480e-06 2.36485306e-07 -2.19006306e-05
      -2.69194770e-05 -1.44552077e-05 1.14408358e-05 8.55897360e-06
      7.82538700e-06 8.40481607e-06 8.37403877e-06 8.49611934e-06 0.
      5.68418095e-08 1.29700304e-08 0. 0. 2.30188952e-08 1.46058254e-09
      3.45283446e-08 2.30188952e-08 2.30188952e-08 -2.69957951e-07
      -1.90502860e-07 -2.38914083e-07 3.15731586e-06 1.91275603e-06
      7.92710580e-06 6.58706176e-06 6.47544721e-06 6.49465483e-06
      -8.17356494e-08 -3.20917798e-06 1.00060688e-05 1.84678370e-07
      3.09671327e-06 1.66392510e-05 1.73103490e-05 -8.41084147e-06
      -8.70813619e-06 -8.51135974e-06 -8.56102179e-06 -8.56971110e-06
      -8.52791800e-06 -8.46395415e-06 -8.63773766e-06 2.57709348e-06
      -2.67140022e-05 -1.64024477e-05 4.30289128e-06 1.81872315e-06
      8.42910958e-06 8.63873538e-06 8.35321225e-06 8.17425553e-06
      8.58442218e-06 8.51709319e-06 2.31774102e-08 1.29700304e-08 0.
      1.22397390e-08 0. 1.15094476e-08 7.30291272e-10 7.30291272e-10
      1.46058254e-09 -4.90143215e-08 -1.32391676e-07 -9.66331513e-08
      -3.36440600e-08 -7.39677546e-08 6.53779216e-06 6.06268077e-06
      6.50117727e-06 -1.99983766e-10 -2.08909887e-06 7.78997946e-06
      7.66897392e-06 -3.49584752e-06 1.67932330e-06 -8.62038178e-07
      -1.84240671e-05 -8.72611417e-06 -8.67792642e-06 -8.51357163e-06
      -8.50304059e-06 -8.57363011e-06 -8.53090387e-06 -8.52681387e-06
      4.27307469e-08 3.52747156e-06 -1.50936139e-05 -4.79390110e-06
      7.08831067e-06 8.38827600e-06 8.51258301e-06 8.78199899e-06
      8.45733939e-06 8.58442218e-06 8.44976421e-06 -6.93015645e-10
      -1.11355803e-07 0. 1.51609036e-08 0. 3.67192179e-08 0. 0.
      5.90078209e-08 0. -1.70117946e-08 1.85709936e-07 -5.08251787e-08
      1.95194083e-08 -3.78422875e-08 -2.45019322e-07 6.76977743e-06
      -1.00785327e-08 7.53110907e-09 -9.05345496e-06 2.01767443e-06
      -9.23109110e-06 -7.02793341e-06 -3.80735901e-06 -6.22030029e-06
      -1.51149579e-05 -8.74301531e-06 -8.72013970e-06 -8.59517149e-06
      -8.46497642e-06 -8.49718799e-06 -8.38975484e-06 -1.00993198e-07
      3.64366201e-06 6.00397516e-06 -2.38875555e-06 1.71968293e-06
      1.81924806e-05 8.56057886e-06 8.65275615e-06 8.33379818e-06
      8.83744724e-06 8.48273521e-06 2.31774102e-08 -1.38603129e-09 0.
      7.30291272e-10 0. 3.52586333e-08 0. 1.15094476e-08 0.
      2.19087370e-09 1.15094476e-08 8.57059934e-09 -2.58908308e-08
      -3.95522122e-08 -3.06800629e-08 -1.10644926e-07 8.56174509e-08
      -2.43077789e-08 6.83823873e-06 8.26974065e-06 8.31099351e-06
      6.95159815e-06 -8.93285505e-06 3.74548540e-06 -2.56459816e-06
      -1.90395360e-06 -8.71309476e-06 -8.65357288e-06 -8.58442218e-06
      -8.57529631e-06 -8.49967637e-06 -8.54405243e-06 -1.05025194e-07
      1.21414388e-07 3.62190144e-06 -4.83084023e-07 1.54733752e-05
      1.81349042e-05 1.49569778e-05 8.51064397e-06 8.58065323e-06
      8.43484122e-06 -3.73187845e-08 3.29713821e-08 -1.32454161e-07 0.
      6.59427641e-08 1.15094476e-08 1.15094476e-08 0. 0. 3.45283446e-08
      0. 0. 0. 6.57667201e-08 4.44833432e-08 1.16766170e-08
      8.07324341e-08 -8.65191208e-09 7.44655335e-06 2.46133059e-05
      2.80076019e-05 1.86652524e-05 1.43896732e-05 1.93376545e-05
      1.25087090e-05 1.50426658e-05 1.54840709e-05 -1.12805146e-05
      -1.09805906e-05 4.78535434e-08 -2.91474382e-08 6.86526613e-09
      4.95104118e-08 1.36733476e-07 -3.99916686e-08 -9.19103229e-08
      -4.08570713e-06 1.33087951e-05 1.53556848e-05 8.61081480e-06
      8.37663356e-06 8.55362850e-06 8.53813890e-06 8.71895827e-06
      -5.48684831e-08 0. 0. 0. 0. 0. 0. 4.60377905e-08 0. 0.
      1.15094476e-08 0. 1.15094476e-08 -2.17617817e-08 2.91519814e-06
      2.93208382e-06 3.07169080e-06 7.44415638e-06 1.58935836e-05
      3.48959729e-05 3.43941756e-05 2.31321865e-05 2.93421781e-05
      2.95359805e-05 3.37866186e-05 2.44095954e-05 6.69346446e-06
      -1.10539077e-05 -1.10182445e-05 6.07420674e-08 -2.14054310e-07
      6.03316224e-08 -1.83580170e-07 -1.57497908e-07 1.29171937e-07
      -1.95935627e-06 -3.38938918e-07 1.76170834e-05 9.07202957e-06
      8.55178041e-06 8.57193390e-06 8.63237165e-06 9.88605908e-09
      4.53636666e-08 3.97483078e-08 0. 0. 0. 0. 0. 0. 0. 2.30188952e-08
      2.30188952e-08 0. 0. 0. 2.98366035e-06 3.00792567e-06
      2.97147312e-06 2.82163296e-06 7.44135605e-06 1.48613826e-05
      3.64692351e-05 3.66396562e-05 3.21032312e-05 2.29713514e-05
      3.43124520e-05 2.43468421e-05 1.24102162e-05 6.86016256e-06
      1.20164643e-07 -3.84979515e-09 -6.32311696e-08 2.02709160e-07
      -1.29353054e-07 3.18082726e-07 -4.54776637e-06 -7.49185074e-06
      -1.61752869e-05 6.45142973e-06 1.45564582e-05 -5.25505186e-07
      2.45208867e-06 8.33721879e-06 8.73505087e-06 1.21623216e-07
      -1.01138504e-07 3.08599397e-07 3.36643993e-08 3.36643993e-08
      3.36643993e-08 3.36643993e-08 0. 2.30188952e-08 0. 0.
      1.15094476e-08 0. 0. 2.93490916e-06 2.95822633e-06 2.97824454e-06
      2.99848921e-06 3.30454327e-06 7.71945724e-06 1.48765675e-05
      3.00069823e-05 3.01031068e-05 2.98406849e-05 3.41106752e-05
      3.40523693e-05 1.58530092e-05 1.80298048e-05 7.56007523e-08
      1.39873734e-07 7.59507586e-08 1.51520752e-07 -1.41933000e-07
      9.80369848e-08 -1.46920300e-07 -5.17211720e-06 -1.52254206e-05
      -1.82365875e-05 1.19953083e-05 1.08177153e-06 8.61671651e-06
      8.43431735e-06 8.40914799e-06 8.59240936e-06 -2.05675380e-10
      2.57615483e-07 -3.77996265e-08 0. 0. 0. 0. 0. 2.30188952e-08 0. 0.
      1.15094476e-08 0. 0. 2.93490916e-06 3.06429729e-06 2.96420308e-06
      3.17847594e-06 3.13618875e-06 7.58752958e-06 1.64703597e-05
      1.92270800e-05 2.33558621e-05 2.98358627e-05 2.97344650e-05
      2.82871715e-05 3.01038767e-06 2.52119854e-08 -3.07416599e-08
      -2.69862880e-07 5.78577293e-08 4.83090190e-09 -7.86768126e-08
      3.52048062e-08 2.64839514e-07 8.20721198e-08 6.84739291e-07
      1.27692128e-05 2.44403363e-05 1.24930993e-05 8.84272140e-06
      1.48256477e-05 1.48722593e-05 8.46200874e-06 8.59998090e-06
      8.84330893e-06 -1.33392604e-07 0. 0. 0. 0. 0. 0. 0. 2.30188952e-08
      2.30188952e-08 0. 0. 0. 2.94183837e-06 3.18720276e-06
      3.21823200e-06 3.29954196e-06 7.73880492e-06 9.82479378e-06
      1.91381077e-05 1.23266082e-05 3.00433894e-05 3.14437348e-05
      1.78226946e-05 -5.72880390e-06 -4.68228549e-08 1.39080015e-07
      -4.14738732e-09 2.98968779e-08 5.79427031e-08 4.21173603e-08
      1.08821241e-09 3.50784113e-08 7.90081458e-08 1.05826712e-05
      3.15569305e-05 2.19332942e-05 2.43256145e-05 8.88457998e-06
      1.50647838e-05 1.53956007e-05 1.50692586e-05 8.66250866e-06
      8.49179833e-06 8.65903894e-06 0. 0. 0. 0. 0. 0. 4.60377905e-08 0.
      0. 1.15094476e-08 0. 1.15094476e-08 8.84948221e-08 4.24564881e-08
      3.16531373e-06 3.09059510e-06 3.08146878e-06 1.16210931e-05
      1.31730840e-05 2.58520049e-05 1.88514314e-05 1.41543724e-05
      2.96905887e-06 -1.66617046e-05 -1.93196483e-05 -8.63353034e-06
      -8.69817359e-06 -8.46626517e-06 -8.62452998e-06 -8.59593365e-06
      -8.41741530e-06 -8.47234242e-06 3.49414518e-06 2.67644100e-05
      3.51371636e-05 3.70635753e-05 2.73687601e-05 2.08151396e-05
      1.50740680e-05 1.52678713e-05 1.52073198e-05 1.50542719e-05
      8.44147235e-06 8.61545868e-06 8.58442218e-06 8.58442218e-06
      8.58442218e-06 8.58442218e-06 1.15094476e-08 1.15094476e-08 0. 0.
      3.45283446e-08 0. 0. 0. 6.16922122e-08 -1.91074321e-08
      1.87930098e-07 2.16247386e-07 1.88118622e-06 4.93895732e-06
      6.94214941e-06 1.65436559e-05 1.18288981e-05 -6.72261831e-06
      -1.93128435e-05 -1.96549372e-05 -2.56066869e-05 -1.95497396e-05
      -8.37277639e-06 -8.42049576e-06 -8.47322281e-06 -8.62628167e-06
      -8.60609089e-06 -8.53315669e-06 -5.13022815e-06 1.49528241e-05
      2.34900144e-05 2.08700640e-05 2.93977810e-05 2.43682607e-05
      1.52091516e-05 1.52794455e-05 1.50246660e-05 1.50664155e-05
      8.74496436e-06 8.50463766e-06 8.58442218e-06 8.58442218e-06
      8.58442218e-06 8.58442218e-06 0. 1.70099856e-09 1.70099856e-09 0.
      1.70099856e-09 0. 0. 8.50499282e-10 1.75165233e-08 3.87141199e-08
      3.91462436e-08 5.46158603e-08 1.64328594e-06 1.60592037e-06
      1.70565625e-06 7.08595007e-06 -3.99374039e-06 -2.46144646e-05
      -3.68213587e-05 -3.66055283e-05 -3.61872262e-05 -2.88480442e-05
      -3.24549765e-05 -2.60886791e-05 -1.50046772e-05 -1.51695622e-05
      -1.50188225e-05 -8.76969170e-06 1.11038262e-05 2.65272811e-05
      3.71423303e-05 2.56722124e-05 2.10261187e-05 1.30085054e-05
      1.58171642e-05 6.50814900e-06 1.49837870e-05 1.50694532e-05
      8.62308116e-06 8.55138205e-06 8.58442218e-06 8.58442218e-06
      8.58442218e-06 8.58442218e-06 0. 0. 0. 0. 0. 0. 1.70099856e-09 0.
      1.12370834e-07 -5.71275720e-08 -4.69222847e-08 3.31647207e-08
      -1.10197952e-07 -3.21709149e-06 2.73432121e-08 1.03454099e-07
      -2.08115544e-05 -4.58366958e-05 -5.18295346e-05 -5.19442146e-05
      -4.53909561e-05 -3.88008339e-05 -2.86876602e-05 -3.24687389e-05
      -1.50324086e-05 -1.48464123e-05 -1.50371770e-05 -5.06118249e-06
      2.14771717e-05 2.66006809e-05 3.67823668e-05 2.57531028e-05
      4.32154411e-05 1.43910784e-05 1.30969620e-05 9.72519047e-06
      1.48881281e-05 1.50152409e-05 8.54523569e-06 8.57776922e-06
      8.58442218e-06 8.58442218e-06 8.58442218e-06 8.58442218e-06
      8.50499282e-10 2.55149768e-09 0. 1.70099856e-09 0. 8.50499282e-10
      1.70099856e-09 0. 3.38655255e-08 -1.32699341e-07 2.53822350e-08
      1.10312129e-07 -7.36262535e-08 -3.28911869e-06 -1.62355192e-07
      -1.17308437e-05 -2.13972125e-05 -4.59954972e-05 -5.17572735e-05
      -5.16373475e-05 -4.52301574e-05 -4.99172020e-05 -4.36054615e-05
      -3.53083524e-05 -2.61051973e-05 -1.51379263e-05 -6.06506410e-06
      5.05658761e-07 1.93328779e-05 2.67147680e-05 3.72449467e-05
      2.57391621e-05 3.70841335e-05 1.45930908e-05 1.30774733e-05
      9.33178126e-06 6.83773669e-06 1.50883852e-05 8.53274651e-06
      8.58577187e-06 8.58442218e-06 8.58442218e-06 8.58442218e-06
      8.58442218e-06 0. 0. 1.70099856e-09 0. 2.55149768e-09 0. 0.
      1.70099856e-09 7.74946241e-09 3.12754310e-07 -6.08700361e-08
      -6.68269990e-08 1.00418220e-07 -3.34658921e-06 -5.95738447e-06
      -1.84373494e-05 -4.03515260e-05 -4.58072209e-05 -5.17478875e-05
      -5.18300913e-05 -5.17987792e-05 -5.20075118e-05 -5.20281210e-05
      -4.21924851e-05 -2.63081020e-05 -1.50156056e-05 -1.15971488e-05
      3.42447538e-06 7.32239278e-06 1.63375407e-05 4.33443674e-05
      3.19724168e-05 4.32221568e-05 1.30138160e-05 1.29778336e-05
      6.97236601e-06 1.51695649e-05 1.52270895e-05 8.77349521e-06
      8.56169299e-06 8.58442218e-06 8.58442218e-06 8.58442218e-06
      8.58442218e-06 1.70099856e-09 8.50499282e-10 8.50499282e-10 0. 0.
      1.70099856e-09 0. 8.50499282e-10 -1.60263511e-07 -3.24051475e-09
      6.01849479e-06 6.05834703e-06 5.89432693e-06 1.35813636e-08
      -2.55004875e-06 -4.01631623e-05 -4.32751258e-05 -5.17380213e-05
      -4.49161271e-05 -4.53749635e-05 -5.18562119e-05 -5.17553890e-05
      -5.16497166e-05 -3.58908292e-05 -2.63449601e-05 -1.50504866e-05
      -5.83706651e-06 4.90657840e-07 7.41152826e-06 2.00399190e-05
      2.28308490e-05 2.95097871e-05 4.08117412e-05 2.63318398e-05
      7.22249661e-06 6.89306080e-06 1.53137262e-05 1.52908833e-05
      8.60841646e-06 8.48566833e-06 8.58442218e-06 8.58442218e-06
      8.58442218e-06 8.58442218e-06 0. 0. 1.70099856e-09 3.40199713e-09
      8.50499282e-10 0. 2.16877311e-07 0. 6.27604823e-06 1.06788684e-05
      1.08126869e-05 6.19848652e-06 6.33582886e-06 6.14687542e-06
      -8.88664454e-06 -4.01942743e-05 -4.51186315e-05 -4.51957130e-05
      -4.53786815e-05 -4.51613123e-05 -4.54351903e-05 -4.57057031e-05
      -4.12265399e-05 -3.40272672e-05 -8.88949580e-06 -1.40831125e-05
      -7.81328890e-06 1.35443424e-05 1.62619344e-05 2.27930086e-05
      2.28308563e-05 4.06691615e-05 4.07212574e-05 2.70132368e-05
      9.81147423e-06 9.61819933e-06 1.53394558e-05 1.52223829e-05
      8.53296115e-06 8.57013765e-06 8.58442218e-06 8.58442218e-06
      8.58442218e-06 8.58442218e-06 0. 1.70099856e-09 0. 0. 0.
      2.55149768e-09 2.16877311e-07 2.16877311e-07 6.04643083e-06
      1.09422072e-05 1.29426662e-05 1.07596570e-05 1.07448523e-05
      8.32642672e-06 6.78525112e-08 -2.37399922e-06 -3.61007478e-05
      -3.91684152e-05 -3.93922710e-05 -2.37963031e-05 -2.35671032e-05
      -3.46534580e-05 -2.61707901e-05 -8.64405956e-06 -8.76971262e-06
      -1.73565843e-06 1.39555577e-05 3.64684056e-05 3.64975931e-05
      2.98782124e-05 4.30283726e-05 4.34207832e-05 4.34258582e-05
      2.23022853e-05 9.76412230e-06 6.63972696e-06 1.51196873e-05
      1.51593231e-05 8.40362372e-06 8.65458878e-06 8.58442218e-06
      8.58442218e-06 8.58442218e-06 8.58442218e-06 8.50499282e-10 0. 0.
      4.25249613e-09 0. 0. 0. 0. 1.39741051e-05 1.81413197e-05
      1.95121593e-05 1.96631245e-05 2.27568671e-05 2.57536849e-05
      4.68680082e-06 2.21044775e-06 -2.05297765e-05 -2.02566971e-05
      -2.04623011e-05 -2.04565949e-05 -1.57412323e-05 -8.78744322e-06
      -8.84962992e-06 -8.81221968e-06 -8.59986267e-06 1.19399992e-05
      2.51378788e-05 3.64537009e-05 3.64913321e-05 3.31485644e-05
      3.66758395e-05 4.31263470e-05 4.34877511e-05 2.22270355e-05
      9.70712517e-06 6.80720450e-06 1.51463692e-05 1.50820733e-05
      8.79409436e-06 8.51565892e-06 8.58442218e-06 8.58442218e-06
      8.58442218e-06 8.58442218e-06 2.93490916e-06 2.97794350e-06
      2.93636981e-06 2.95284690e-06 2.93563949e-06 0. 4.16870023e-08 0.
      1.58165931e-05 1.93074829e-05 1.96178717e-05 1.97593072e-05
      3.37801757e-05 3.04771020e-05 1.79616600e-05 -3.21762485e-07
      -1.15782186e-05 -1.18468661e-05 -8.65468519e-06 -8.57347186e-06
      -8.84309156e-06 -8.64668982e-06 -8.79210165e-06 -8.85094323e-06
      -5.27087468e-06 1.20392260e-05 3.02151475e-05 3.64612242e-05
      3.32434647e-05 3.31520750e-05 3.62846695e-05 4.33487257e-05
      3.07159316e-05 2.09490772e-05 6.74626972e-06 1.54309728e-05
      1.51205822e-05 8.53032998e-06 8.65418951e-06 8.59941974e-06
      8.48342825e-06 8.58442218e-06 8.58442218e-06 8.48342825e-06
      2.91335095e-06 2.93490916e-06 2.91189031e-06 2.92486038e-06
      2.98872260e-06 2.95284690e-06 2.91189031e-06 2.98872260e-06
      1.88762897e-05 2.22753715e-05 2.25392068e-05 2.24445521e-05
      2.29500438e-05 3.92226830e-05 2.90975404e-05 5.95839401e-06
      -3.13289405e-07 -1.51252664e-07 -3.99509645e-07 -8.73651516e-06
      -8.79069376e-06 -8.61815897e-06 -8.67601011e-06 -8.76343984e-06
      -4.83356371e-06 3.47901041e-05 4.31246044e-05 4.32088527e-05
      4.00646895e-05 4.00811841e-05 4.33344176e-05 3.06368129e-05
      2.76721639e-05 1.54393292e-05 1.53551373e-05 1.52035109e-05
      1.51018576e-05 8.64920275e-06 8.79332674e-06 8.64012873e-06
      8.58442218e-06 8.48342825e-06 8.58442218e-06 8.58442218e-06
      2.93490916e-06 2.92339973e-06 2.99018325e-06 2.92339973e-06
      2.93490916e-06 3.12113343e-06 2.93563949e-06 7.45088755e-06
      1.63929180e-05 2.22978360e-05 2.24125724e-05 2.26564480e-05
      2.35960833e-05 4.16862167e-05 4.84171551e-06 -2.34648979e-07
      -3.91010246e-07 -1.07190999e-07 -3.49156579e-07 -1.89047128e-07
      -2.57315918e-07 -8.69769156e-06 -8.84882502e-06 -8.51076402e-06
      1.09301357e-06 4.32108645e-05 5.17793342e-05 5.17757981e-05
      4.83337608e-05 4.85261844e-05 4.11692417e-05 2.93613139e-05
      2.62841859e-05 1.72122509e-05 1.71605352e-05 1.72752370e-05
      1.53735309e-05 8.67212384e-06 8.46425883e-06 8.71960856e-06
      8.55075723e-06 8.51709319e-06 8.58442218e-06 8.58442218e-06
      2.94206779e-06 2.95284690e-06 2.93490916e-06 3.12113343e-06
      3.13399028e-06 7.64923880e-06 7.69381586e-06 7.68376685e-06
      1.90877017e-05 2.22817398e-05 2.22558483e-05 2.23419029e-05
      2.34261297e-05 2.15683576e-05 9.05920569e-06 -6.48045398e-06
      8.19774542e-08 -1.49307596e-07 -7.02774301e-08 -2.63026720e-07
      -7.96983031e-08 6.00693753e-08 -1.93423624e-08 2.54087672e-06
      3.69475242e-06 4.95337699e-05 4.06859726e-05 4.84917218e-05
      4.61597920e-05 3.79134544e-05 3.49157781e-05 2.94710662e-05
      1.53854580e-05 1.53855926e-05 1.53619221e-05 8.72276632e-06
      8.59740067e-06 8.60498676e-06 8.64776757e-06 8.57605210e-06
      8.58442218e-06 8.58442218e-06 8.58442218e-06 0. 2.91189031e-06
      2.93490916e-06 2.99091357e-06 3.09665393e-06 3.11894246e-06
      3.12040311e-06 3.08295353e-06 3.13907117e-06 8.25045390e-06
      2.23975730e-05 2.24204341e-05 2.27166947e-05 1.36291028e-05
      2.11361862e-06 -4.68098415e-06 -6.50803622e-06 -6.49961339e-06
      -6.57435339e-06 -6.49878621e-06 -1.31924494e-07 -1.34482676e-07
      -8.53405027e-08 8.48510524e-08 3.36100493e-06 3.63372874e-06
      2.86901977e-05 3.11955664e-05 4.25377402e-05 3.29514551e-05
      3.28619171e-05 3.25383298e-05 1.50042479e-05 8.80910011e-06
      8.74340822e-06 8.70234271e-06 8.54726113e-06 8.75718888e-06
      8.60995806e-06 8.65161383e-06 8.66029131e-06 8.58442218e-06
      8.48342825e-06 6.73287985e-08 3.36643993e-08 8.19134200e-08
      2.93490916e-06 2.92339973e-06 3.12113343e-06 3.17421654e-06
      3.12113343e-06 3.13399028e-06 3.13834084e-06 8.48150739e-06
      1.62812819e-06 1.58026651e-05 1.58020393e-05 2.02821593e-05
      1.21353205e-05 -9.80482400e-06 -1.17415093e-05 -1.74894358e-05
      -6.56251268e-06 -6.39722839e-06 -6.43575413e-06 -1.62898132e-07
      -1.05420384e-07 4.08947081e-08 -2.52539940e-06 8.33439844e-06
      2.85016340e-05 2.57743031e-05 2.59440294e-05 1.07097485e-05
      1.29628033e-05 8.53118399e-06 8.93446213e-06 8.70493659e-06
      8.67413746e-06 8.60090131e-06 8.72648070e-06 8.48342825e-06
      8.78393894e-06 8.59678130e-06 9.22289942e-08 6.73287985e-08 0. 0.
      0. 0. 2.19087370e-09 9.47701579e-08 2.04162092e-07 1.84033397e-07
      1.97733712e-07 3.14403906e-06 3.09738425e-06 6.26408655e-06
      8.23250139e-06 8.28671455e-06 9.89334148e-06 7.23326548e-06
      1.25923198e-05 2.05923789e-06 -2.08738311e-05 -1.40798447e-05
      -1.17454829e-05 -9.98222276e-06 -1.18677481e-05 -8.51527147e-06
      -2.40309291e-05 -1.34849133e-05 1.83637167e-05 1.62228007e-05
      1.62909782e-05 1.11445161e-05 1.82520416e-05 1.84039091e-05
      1.53123983e-05 1.50158949e-05 8.52779885e-06 8.61027547e-06
      8.58533258e-06 8.60335876e-06 8.54512109e-06 8.64670255e-06
      1.56115348e-07 6.91293494e-08 7.98998130e-08 3.36643993e-08 0. 0.
      6.73287985e-08 1.79378148e-08 0. 1.46058254e-09 5.24661594e-08
      2.04162092e-07 2.39307411e-07 2.19292033e-07 2.04162092e-07
      1.21105586e-07 3.14856379e-06 3.33801654e-06 3.32108834e-06
      3.27263888e-06 5.88563671e-06 3.30015155e-06 -5.84248392e-06
      -1.55113175e-05 -1.52998782e-05 -6.65144535e-06 -2.80020158e-05
      -1.04334422e-05 -2.33583773e-06 1.16901674e-05 1.14350905e-05
      9.11994721e-06 1.53501096e-05 1.50413043e-05 1.51124450e-05
      1.50163823e-05 6.56940074e-06 6.46084391e-06 6.53133293e-06
      6.56353495e-06 6.61057447e-06 6.55011763e-06 4.15517043e-08
      1.08447381e-07 4.93928383e-08 1.28523055e-07 1.22484085e-08 0.
      3.36643993e-08 3.36643993e-08 0.</_></support_vectors>
  <uncompressed_sv_total>65</uncompressed_sv_total>
  <uncompressed_support_vectors>
    <_>
      0. 0. 1. 0. 1. 1. 1. 0. 0. 0. 1. 1. 0. 0. 255. 254. 255. 255. 255.
      255. 255. 255. 255. 255. 255. 255. 0. 0. 1. 0. 0. 0. 0. 0. 1. 0.
      0. 1. 0. 0. 0. 0. 0. 0. 1. 2. 0. 0. 0. 0. 0. 0. 0. 3. 0. 255. 255.
      254. 255. 255. 255. 255. 255. 255. 255. 255. 255. 255. 254. 254.
      255. 254. 252. 4. 2. 0. 0. 1. 0. 1. 2. 0. 1. 2. 0. 0. 0. 0. 0. 2.
      1. 0. 2. 1. 2. 0. 4. 253. 255. 253. 251. 255. 255. 255. 254. 254.
      254. 254. 254. 254. 254. 254. 255. 255. 253. 254. 254. 255. 251.
      255. 255. 255. 2. 0. 0. 1. 0. 0. 0. 0. 0. 0. 0. 0. 2. 0. 0. 0. 0.
      255. 254. 253. 255. 255. 255. 253. 255. 253. 255. 255. 255. 255.
      255. 255. 255. 255. 253. 255. 254. 255. 255. 253. 255. 254. 255.
      251. 255. 0. 0. 0. 6. 0. 0. 0. 0. 0. 3. 0. 0. 2. 1. 0. 4. 252.
      253. 255. 252. 251. 254. 255. 255. 254. 255. 255. 255. 255. 255.
      255. 255. 255. 255. 254. 255. 253. 255. 253. 252. 255. 255. 255.
      252. 255. 255. 0. 0. 1. 0. 0. 0. 0. 0. 5. 0. 4. 0. 0. 1. 255. 255.
      252. 255. 255. 255. 255. 255. 255. 255. 255. 255. 255. 255. 255.
      255. 255. 253. 255. 255. 255. 253. 255. 255. 255. 254. 255. 255.
      250. 255. 254. 4. 0. 0. 0. 0. 0. 1. 0. 2. 0. 2. 1. 0. 255. 252.
      255. 255. 253. 255. 1. 0. 0. 0. 0. 0. 0. 0. 0. 0. 0. 5. 252. 255.
      255. 255. 255. 255. 250. 255. 251. 255. 254. 255. 254. 254. 0. 0.
      0. 0. 0. 1. 0. 0. 1. 1. 0. 0. 255. 255. 255. 253. 0. 4. 0. 0. 0.
      0. 0. 0. 0. 0. 0. 0. 0. 0. 0. 1. 253. 255. 255. 251. 255. 254.
      255. 254. 255. 253. 253. 255. 0. 0. 0. 0. 0. 0. 0. 0. 0. 0. 0. 0.
      0. 0. 0. 0. 0. 0. 0. 0. 0. 0. 0. 0. 0. 0. 0. 0. 0. 0. 0. 1. 0.
      255. 255. 255. 255. 255. 254. 255. 255. 255. 255. 253. 0. 0. 0. 0.
      0. 0. 0. 0. 0. 0. 0. 0. 0. 0. 0. 0. 0. 0. 0. 0. 0. 0. 0. 0. 0. 0.
      0. 0. 0. 1. 2. 2. 0. 0. 255. 254. 255. 255. 254. 255. 252. 253.
      253. 255. 0. 0. 0. 0. 0. 0. 0. 0. 0. 0. 0. 0. 0. 0. 0. 0. 0. 0. 0.
      0. 0. 0. 0. 0. 0. 0. 0. 0. 0. 0. 0. 1. 0. 1. 254. 255. 252. 253.
      255. 255. 255. 254. 255. 253. 1. 0. 0. 0. 0. 0. 0. 0. 0. 0. 0. 0.
      0. 0. 0. 0. 0. 0. 0. 0. 0. 0. 0. 0. 0. 0. 0. 0. 0. 3. 0. 0. 1. 1.
      255. 253. 255. 255. 250. 255. 255. 255. 254. 255. 253. 0. 0. 0. 0.
      0. 0. 0. 0. 0. 0. 0. 0. 0. 0. 0. 0. 0. 0. 0. 0. 0. 0. 0. 0. 0. 0.
      0. 0. 1. 0. 2. 0. 0. 255. 255. 253. 254. 255. 255. 255. 254. 255.
      254. 0. 0. 0. 0. 0. 0. 0. 0. 0. 0. 0. 0. 0. 0. 0. 0. 0. 0. 0. 0.
      0. 0. 0. 0. 0. 0. 0. 0. 0. 0. 2. 0. 1. 0. 252. 255. 255. 252. 255.
      252. 255. 252. 255. 255. 0. 0. 0. 0. 0. 0. 0. 0. 0. 0. 0. 0. 0. 0.
      0. 0. 0. 0. 0. 0. 0. 0. 0. 0. 0. 0. 0. 0. 0. 0. 2. 0. 1. 255. 255.
      252. 255. 255. 255. 255. 253. 255. 255. 252. 1. 0. 0. 0. 0. 0. 0.
      0. 0. 0. 0. 0. 0. 0. 0. 0. 0. 0. 0. 0. 0. 0. 0. 0. 0. 0. 0. 0. 0.
      0. 0. 255. 252. 255. 253. 255. 254. 255. 255. 255. 255. 254. 255.
      254. 0. 0. 0. 0. 0. 0. 0. 0. 0. 0. 0. 0. 0. 0. 0. 3. 0. 1. 0. 0.
      1. 0. 0. 0. 0. 1. 0. 0. 2. 0. 255. 255. 253. 255. 254. 255. 253.
      254. 255. 255. 255. 255. 0. 4. 0. 0. 0. 0. 0. 0. 0. 0. 0. 0. 0. 0.
      0. 0. 1. 0. 3. 0. 0. 5. 0. 2. 0. 3. 4. 0. 2. 2. 0. 255. 254. 253.
      255. 255. 253. 255. 255. 255. 255. 255. 255. 1. 0. 0. 2. 0. 0. 0.
      0. 0. 0. 0. 0. 0. 0. 0. 0. 1. 0. 1. 0. 1. 0. 0. 0. 0. 1. 0. 0. 0.
      0. 255. 253. 254. 255. 255. 253. 254. 254. 255. 255. 252. 253.
      255. 0. 3. 0. 1. 1. 0. 0. 0. 0. 0. 0. 0. 0. 0. 0. 0. 0. 1. 0. 0.
      2. 0. 3. 2. 2. 3. 0. 3. 1. 0. 255. 252. 255. 254. 254. 255. 252.
      255. 255. 252. 255. 255. 255. 255. 1. 0. 0. 0. 1. 0. 0. 0. 0. 0.
      0. 0. 0. 0. 0. 0. 0. 1. 0. 2. 0. 0. 1. 0. 0. 0. 2. 0. 255. 254.
      255. 255. 254. 255. 253. 252. 255. 252. 254. 255. 255. 255. 250.
      0. 1. 0. 4. 0. 0. 0. 0. 0. 0. 0. 0. 0. 0. 0. 0. 0. 0. 0. 1. 0. 1.
      0. 0. 1. 2. 3. 255. 252. 255. 254. 255. 254. 255. 254. 255. 255.
      254. 255. 255. 252. 255. 255. 2. 2. 3. 0. 0. 3. 0. 0. 0. 0. 0. 0.
      0. 0. 0. 0. 0. 0. 0. 0. 2. 0. 0. 7. 0. 0. 0. 253. 252. 255. 254.
      254. 255. 255. 255. 255. 253. 255. 255. 253. 255. 255. 1. 0. 3. 0.
      0. 6. 0. 0. 1. 0. 0. 0. 0. 0. 0. 0. 0. 0. 0. 0. 0. 1. 0. 0. 1. 0.
      0. 255. 255. 255. 255. 253. 254. 255. 253. 255. 253. 254. 255.
      254. 255. 0. 0. 1. 0. 0. 0. 0. 0. 0. 0. 1. 1. 0. 0. 0. 0. 0. 0. 1.
      0. 0. 0. 3. 0. 1. 0. 1. 0. 0. 255. 252. 255. 255. 255. 255. 255.
      255. 251. 255. 255. 255. 252. 255. 0. 0. 0. 3. 0. 0. 0. 0. 0. 0.
      0. 0. 0. 0. 0. 0. 0. 0. 4. 0. 4. 0. 0. 1. 0. 0. 2. 0. 1. 254. 255.
      253. 255. 255. 255. 255. 253. 252. 255. 252. 255. 254. 2. 0. 2. 0.
      1. 0. 2. 0. 0. 0. 0. 0. 0. 0. 0. 0. 0. 0. 0. 2. 0. 1. 0. 4. 0. 0.
      0. 2. 0. 1. 255. 254. 255. 254. 255. 255. 253. 255. 255. 255. 255.
      255. 0. 1. 0. 0. 0. 0. 2. 3. 0. 0. 0. 0. 0. 0. 0. 0. 0. 0. 0. 0.
      0. 0. 4. 1. 0. 1. 0. 0. 3. 0. 255. 255. 254. 255. 255. 255. 253.
      255. 255. 255. 254. 253. 0. 1. 0. 0. 1. 4. 0. 1. 0. 1. 0. 0. 0. 0.
      0. 0. 0. 0. 0. 0. 0. 0. 0. 0. 1. 0. 0. 1. 0. 2. 0. 255. 255. 254.
      255. 254. 254. 251. 255. 254. 252. 255. 3. 0. 3. 1. 1. 0. 0. 0. 0.
      2. 0. 2. 1. 0. 0. 0. 0. 0. 0. 0. 0. 0. 0. 0. 0. 3. 0. 0. 1. 0. 0.
      0. 255. 255. 252. 255. 254. 255. 255. 255. 254. 255. 255. 0. 0. 4.
      0. 1. 0. 1. 1. 1. 1. 0. 2. 0. 0. 0. 0. 0. 0. 0. 0. 0. 0. 0. 0. 0.
      0. 0. 0. 2. 0. 1. 3. 1. 254. 253. 255. 255. 255. 254. 252. 252.
      255. 254. 0. 2. 0. 2. 0. 1. 1. 0. 0. 1. 0. 0. 0. 0. 1. 0. 0. 0. 0.
      0. 0. 0. 0. 0. 0. 0. 0. 0. 2. 0. 0. 0. 0. 0. 255. 255. 254. 255.
      253. 255. 255. 254. 255. 255. 253. 0. 1. 0. 0. 3. 0. 0. 0. 0. 0.
      0. 4. 0. 1. 0. 0. 0. 0. 0. 0. 0. 0. 0. 0. 0. 0. 0. 3. 0. 1. 0. 0.
      254. 255. 255. 255. 255. 255. 255. 255. 255. 255. 255. 255. 255.
      255. 255. 255. 255. 255. 255. 255. 255. 255. 255. 255. 255. 255.
      255. 255. 255. 255. 254. 254. 255. 254. 255. 0. 0. 1. 2. 0. 0. 1.
      0. 1. 255. 255. 255. 255. 255. 255. 255. 255. 255. 255. 255. 255.
      255. 255. 255. 255. 255. 255. 255. 255. 255. 255. 255. 255. 255.
      255. 255. 254. 254. 254. 253. 255. 254. 255. 255. 0. 1. 2. 0. 0.
      4. 0. 0. 255. 255. 254. 254. 254. 254. 254. 254. 254. 254. 254.
      254. 254. 254. 254. 254. 254. 254. 254. 254. 254. 254. 254. 254.
      254. 254. 254. 254. 255. 255. 255. 255. 255. 255. 255. 255. 1. 0.
      0. 2. 0. 1. 2. 0. 254. 254. 255. 255. 255. 255. 255. 255. 255.
      255. 255. 255. 255. 255. 255. 255. 255. 255. 255. 255. 255. 255.
      255. 255. 255. 255. 255. 255. 254. 255. 255. 255. 253. 252. 255.
      252. 4. 0. 1. 0. 2. 0. 0. 0. 255. 254. 255. 255. 255. 255. 255.
      255. 255. 255. 255. 255. 255. 255. 255. 255. 255. 255. 255. 255.
      255. 255. 255. 255. 255. 255. 255. 255. 252. 255. 253. 254. 255.
      254. 255. 255. 0. 0. 0. 0. 3. 2. 0. 0. 0. 0. 255. 255. 255. 255.
      255. 255. 255. 255. 255. 255. 255. 255. 255. 255. 255. 255. 255.
      255. 255. 255. 255. 255. 255. 255. 255. 254. 255. 255. 255. 253.
      253. 252. 1. 0. 2. 1. 2. 1. 0. 0. 0. 3. 0. 5. 0. 0. 0. 0. 0. 0. 0.
      0. 0. 0. 0. 0. 0. 0. 0. 0. 0. 0. 0. 0. 0. 0. 0. 0. 0. 0. 4. 0. 0.
      1. 2. 1. 0. 0. 0. 0. 0. 0. 1. 0. 1. 0. 1. 0. 0. 0. 0. 0. 0. 0. 0.
      0. 0. 0. 0. 0. 0. 0. 0. 0. 0. 0. 0. 0. 0. 0. 0. 0. 0. 1. 0. 0. 3.
      0. 2. 0. 0. 0. 1. 1. 1.</_>
    <_>
      0. 0. 0. 1. 0. 0. 0. 0. 0. 0. 0. 2. 0. 254. 255. 255. 254. 255.
      253. 253. 255. 255. 251. 255. 255. 252. 254. 255. 254. 255. 255.
      254. 0. 0. 0. 2. 0. 0. 0. 0. 0. 0. 0. 0. 1. 0. 0. 0. 2. 0. 0. 1.
      1. 255. 254. 255. 254. 254. 254. 253. 254. 252. 255. 255. 251.
      254. 255. 255. 254. 255. 255. 255. 252. 254. 252. 255. 254. 0. 1.
      0. 1. 0. 1. 1. 0. 0. 0. 0. 0. 5. 0. 1. 0. 0. 4. 0. 254. 253. 255.
      255. 255. 255. 255. 255. 255. 253. 255. 255. 255. 252. 255. 254.
      254. 254. 252. 255. 255. 255. 255. 254. 255. 255. 0. 1. 0. 0. 1.
      0. 0. 0. 0. 0. 0. 0. 1. 1. 0. 0. 0. 0. 255. 255. 255. 250. 253.
      255. 254. 255. 251. 255. 253. 255. 254. 255. 255. 255. 255. 253.
      255. 254. 254. 252. 255. 254. 255. 255. 255. 0. 2. 0. 0. 2. 0. 0.
      0. 0. 3. 0. 0. 0. 1. 0. 4. 253. 255. 255. 254. 255. 255. 255. 255.
      254. 255. 255. 255. 254. 255. 253. 255. 251. 255. 254. 255. 252.
      255. 255. 253. 255. 254. 254. 255. 255. 0. 0. 0. 0. 0. 0. 0. 0. 0.
      3. 3. 1. 0. 1. 0. 1. 254. 255. 253. 255. 254. 253. 0. 0. 0. 255.
      255. 0. 0. 0. 255. 255. 255. 255. 254. 255. 253. 252. 255. 255.
      255. 255. 255. 255. 255. 0. 3. 0. 0. 0. 0. 0. 1. 0. 0. 0. 0. 0. 3.
      0. 0. 252. 255. 0. 0. 3. 1. 0. 0. 0. 4. 0. 0. 4. 0. 0. 0. 0. 255.
      253. 255. 254. 253. 255. 253. 254. 255. 253. 255. 255. 0. 2. 0. 0.
      0. 0. 1. 0. 0. 0. 3. 0. 0. 1. 1. 0. 0. 0. 0. 0. 0. 1. 0. 2. 0. 2.
      0. 0. 1. 0. 2. 0. 0. 0. 254. 255. 255. 255. 255. 254. 255. 255.
      253. 255. 255. 0. 0. 0. 0. 0. 0. 0. 0. 0. 0. 0. 0. 0. 0. 0. 0. 0.
      0. 0. 0. 0. 0. 0. 0. 0. 0. 0. 0. 0. 0. 0. 1. 0. 1. 255. 254. 254.
      255. 255. 255. 255. 255. 255. 255. 255. 255. 0. 0. 1. 0. 0. 0. 0.
      0. 0. 0. 0. 0. 0. 0. 0. 0. 0. 0. 0. 0. 0. 0. 0. 0. 0. 0. 0. 0. 0.
      0. 1. 0. 251. 255. 255. 255. 255. 255. 255. 255. 255. 255. 255. 0.
      1. 1. 0. 0. 0. 0. 0. 0. 0. 0. 0. 0. 0. 0. 0. 0. 0. 0. 0. 0. 0. 0.
      0. 0. 0. 0. 0. 1. 0. 5. 0. 0. 2. 255. 255. 255. 255. 255. 255.
      255. 255. 255. 255. 1. 0. 3. 0. 0. 0. 0. 0. 0. 0. 0. 0. 0. 0. 0.
      0. 0. 0. 0. 0. 0. 0. 0. 0. 0. 0. 0. 0. 0. 0. 0. 1. 0. 1. 254. 255.
      255. 255. 255. 255. 255. 255. 255. 255. 255. 2. 0. 2. 0. 0. 0. 0.
      0. 0. 0. 0. 0. 0. 0. 0. 0. 0. 0. 0. 0. 0. 0. 0. 0. 0. 0. 0. 6. 0.
      1. 0. 2. 0. 3. 255. 255. 255. 255. 255. 255. 255. 255. 255. 254.
      254. 2. 1. 0. 0. 0. 0. 0. 0. 0. 0. 0. 0. 0. 0. 0. 0. 0. 0. 0. 0.
      0. 0. 0. 0. 0. 0. 0. 0. 2. 1. 1. 1. 254. 254. 255. 255. 255. 255.
      255. 255. 255. 255. 254. 3. 0. 0. 0. 0. 0. 0. 0. 0. 0. 0. 0. 0. 0.
      0. 0. 0. 0. 0. 0. 0. 0. 0. 0. 0. 0. 0. 1. 0. 2. 0. 0. 255. 255.
      255. 255. 255. 255. 255. 255. 255. 255. 255. 0. 4. 1. 0. 0. 0. 0.
      0. 0. 0. 0. 0. 0. 0. 0. 0. 0. 0. 0. 0. 0. 0. 0. 0. 0. 0. 0. 0. 0.
      0. 0. 1. 0. 254. 255. 255. 255. 255. 255. 255. 255. 255. 255. 255.
      2. 0. 0. 2. 0. 0. 0. 0. 0. 0. 0. 0. 0. 0. 0. 0. 0. 0. 0. 0. 0. 2.
      0. 2. 0. 1. 0. 1. 0. 0. 1. 0. 255. 254. 255. 255. 253. 255. 254.
      253. 255. 253. 254. 255. 0. 0. 0. 0. 0. 0. 0. 0. 0. 0. 0. 0. 0. 0.
      0. 0. 0. 0. 0. 0. 0. 0. 0. 1. 0. 0. 4. 0. 1. 1. 0. 255. 255. 255.
      254. 255. 255. 255. 253. 255. 252. 255. 255. 0. 0. 0. 0. 0. 0. 0.
      0. 0. 0. 0. 0. 0. 0. 0. 0. 0. 0. 0. 0. 0. 0. 1. 4. 0. 1. 1. 0. 0.
      0. 255. 253. 255. 255. 255. 254. 255. 255. 255. 252. 253. 255.
      255. 255. 1. 0. 0. 0. 0. 0. 0. 0. 0. 0. 0. 0. 0. 0. 0. 0. 0. 0. 0.
      0. 0. 4. 0. 0. 2. 0. 0. 0. 0. 255. 254. 255. 255. 253. 255. 255.
      255. 255. 253. 255. 255. 255. 0. 0. 0. 0. 0. 0. 0. 0. 0. 0. 0. 0.
      0. 0. 0. 0. 0. 0. 0. 0. 0. 0. 0. 0. 0. 0. 0. 3. 3. 0. 255. 251.
      255. 255. 255. 255. 252. 255. 254. 254. 255. 252. 251. 0. 4. 0. 1.
      0. 0. 0. 0. 0. 0. 0. 0. 0. 0. 0. 0. 0. 0. 0. 0. 0. 0. 0. 0. 0. 3.
      2. 0. 0. 253. 254. 255. 255. 250. 255. 254. 255. 255. 255. 255.
      254. 255. 1. 1. 0. 2. 0. 1. 0. 0. 0. 0. 0. 0. 0. 0. 0. 0. 0. 0. 0.
      0. 0. 0. 0. 0. 0. 0. 0. 1. 252. 254. 255. 255. 254. 255. 253. 255.
      255. 255. 251. 255. 254. 255. 255. 0. 2. 0. 0. 2. 0. 0. 0. 0. 0.
      0. 0. 0. 0. 0. 0. 0. 0. 0. 0. 0. 0. 0. 0. 0. 0. 0. 0. 254. 255.
      255. 252. 255. 255. 253. 255. 255. 254. 255. 255. 252. 255. 255.
      0. 3. 0. 0. 2. 0. 2. 0. 0. 0. 0. 0. 0. 1. 1. 0. 2. 0. 3. 0. 2. 0.
      0. 0. 1. 0. 1. 254. 255. 253. 255. 255. 254. 255. 255. 255. 254.
      255. 255. 254. 255. 255. 1. 0. 0. 0. 0. 0. 0. 0. 0. 0. 0. 0. 0. 0.
      1. 0. 0. 1. 0. 0. 0. 0. 0. 3. 0. 1. 0. 1. 255. 255. 255. 255. 252.
      255. 255. 252. 255. 255. 255. 253. 253. 253. 3. 0. 0. 0. 0. 0. 0.
      0. 0. 0. 0. 0. 0. 0. 0. 0. 0. 0. 2. 0. 4. 1. 0. 1. 0. 0. 0. 0.
      255. 252. 255. 254. 255. 255. 255. 255. 253. 252. 255. 252. 252.
      5. 0. 1. 0. 2. 0. 2. 0. 0. 0. 0. 0. 0. 0. 0. 0. 0. 0. 0. 0. 0. 1.
      0. 0. 0. 2. 0. 0. 1. 255. 255. 255. 255. 253. 254. 255. 254. 255.
      253. 255. 255. 255. 2. 1. 0. 0. 0. 0. 0. 0. 0. 0. 0. 0. 0. 0. 0.
      0. 0. 0. 0. 0. 0. 1. 0. 0. 0. 4. 1. 0. 255. 255. 255. 252. 255.
      254. 255. 254. 255. 255. 254. 255. 255. 254. 254. 253. 0. 0. 0. 5.
      0. 0. 2. 1. 1. 0. 0. 0. 0. 0. 0. 0. 0. 0. 0. 0. 0. 0. 2. 2. 2. 0.
      1. 0. 253. 255. 254. 253. 255. 255. 253. 255. 251. 254. 255. 254.
      255. 0. 2. 2. 0. 3. 0. 0. 0. 0. 0. 0. 0. 0. 0. 0. 0. 0. 0. 0. 0.
      0. 0. 0. 0. 2. 0. 0. 0. 2. 0. 255. 255. 255. 254. 255. 255. 252.
      255. 255. 255. 255. 252. 1. 0. 2. 0. 0. 0. 0. 3. 0. 0. 3. 1. 0. 1.
      0. 0. 0. 0. 0. 0. 0. 0. 0. 0. 0. 0. 0. 0. 3. 0. 0. 3. 254. 254.
      255. 254. 255. 254. 254. 255. 255. 255. 255. 255. 0. 1. 0. 0. 0.
      1. 2. 0. 0. 0. 0. 0. 2. 0. 0. 0. 0. 0. 0. 0. 0. 0. 0. 0. 0. 0. 0.
      1. 1. 0. 0. 1. 253. 255. 255. 255. 255. 255. 255. 255. 255. 255.
      255. 255. 0. 1. 0. 2. 0. 0. 1. 0. 0. 3. 0. 2. 0. 0. 0. 0. 0. 2. 0.
      0. 0. 1. 1. 1. 0. 1. 0. 0. 0. 1. 1. 255. 255. 254. 255. 255. 255.
      255. 255. 255. 255. 255. 254. 254. 255. 0. 1. 0. 5. 0. 0. 4. 0. 0.
      1. 2. 1. 0. 0. 3. 0. 0. 0. 0. 0. 1. 0. 0. 3. 0. 0. 0. 0. 0. 255.
      255. 255. 253. 255. 255. 255. 255. 255. 255. 255. 255. 255. 254.
      255. 255. 0. 1. 0. 251. 254. 255. 255. 255. 253. 253. 252. 1. 0.
      0. 1. 0. 1. 2. 3. 0. 2. 4. 0. 0. 1. 0. 1. 0. 254. 255. 250. 255.
      255. 255. 255. 255. 255. 255. 255. 255. 254. 253. 255. 254. 255.
      255. 255. 255. 255. 252. 255. 253. 254. 255. 254. 255. 253. 4. 0.
      1. 0. 0. 0. 3. 0. 0. 0. 2. 0. 1. 0. 0. 255. 253. 255. 253. 255.
      255. 255. 255. 255. 255. 255. 255. 255. 254. 255. 255. 255. 252.
      254. 253. 255. 254. 255. 255. 255. 253. 252. 255. 255. 254. 255.
      255. 255. 255. 255. 255. 255. 255. 1. 0. 0. 0. 1. 3. 252. 255.
      255. 253. 255. 255. 255. 255. 255. 255. 255. 255. 253. 255. 255.
      249. 255. 255. 253. 255. 254. 255. 255. 255. 255. 255. 255. 255.
      255. 255. 254. 254. 255. 253. 255. 252. 255. 252. 1. 1. 0. 2. 0.
      0. 255. 252. 255. 255. 255. 255. 255. 255. 255. 255. 255. 255.
      255. 251. 255. 255. 255. 254. 254. 254. 255. 254. 254. 254. 253.
      255. 254. 255. 255. 253. 254. 255. 253. 255. 254. 255. 254. 255.
